2190 100
i -0.10287315 0.16962576 0.4304797 0.49483114 -0.09576038 -0.86484194 0.5836556 0.9626608 -0.36188465 -0.50202787 0.17893308 -0.57140565 -0.08896079 0.42833486 -0.049251582 -0.07338662 0.0903727 -0.30775383 -0.48719373 -0.8730274 0.1523835 0.26839805 0.2888346 -0.53093755 0.045914967 0.03937137 -0.13075821 0.15836358 -0.3829326 0.07788416 0.086636625 -0.21824075 0.46912974 -0.6178303 -0.42795765 0.29106155 0.5399476 -0.38431653 -0.2029321 -0.49324635 0.12377105 -0.36668354 -0.5092816 0.018391768 0.68368363 -0.2254679 -0.24994169 0.07125229 0.5124064 0.44413862 -0.18439968 -0.37973017 -0.060850095 0.0026522675 -0.11091134 0.27676493 0.51999503 0.0581003 -0.23432158 0.52567434 0.16016667 0.20393382 -0.051394917 -0.12537646 -0.19064404 0.7872219 0.09929393 0.66556585 -0.46574768 0.62916654 -0.17567168 0.44932234 0.65783256 -0.10968305 0.5104988 0.15872361 0.03160917 -0.29687262 -0.21469814 -0.22830202 -0.4800597 -0.040294483 -0.40777838 0.4795402 -0.083308205 -0.25465098 0.4725959 0.0473544 0.39694583 -0.055065826 0.39699996 0.34332517 0.2985808 0.23374331 0.65103245 0.45256314 0.035319116 0.0022237815 -0.13544568 0.07943303
to -0.14795896 0.08254995 0.112086594 0.19142044 0.32091144 -0.79777557 0.61293715 0.9756157 -0.11018736 -0.4614645 0.04335882 -0.38838112 -0.41795224 0.13680299 -0.13817754 0.3902364 0.21260953 -0.20232101 0.07615988 -0.6348005 0.30866084 0.4341534 0.52910495 -0.5069734 -0.01757174 -0.14512052 -0.36358532 0.23183364 -0.026075037 -0.22771905 0.5890378 -0.08471494 0.5058995 -0.53864205 -0.6205965 0.68348557 0.6909626 -0.22478706 -0.37043878 -0.42561254 0.6787851 -0.38215408 -0.71211284 -0.16176188 0.55865145 -0.084473 0.3728745 -0.23135851 0.052717354 0.31179002 0.3565485 -0.4670527 -0.27141204 0.040531103 -0.061417814 0.15274766 0.5611251 0.120545305 -0.45454833 0.05930231 -0.14312913 0.19575578 0.11999481 -0.35778457 -0.022671748 0.5721022 0.044184558 0.31897965 -0.32295725 0.6352459 -0.12271866 0.3133248 0.7034046 0.3185598 0.49222308 -0.324456 -0.27671677 -0.4557589 -0.5024297 0.2309253 -0.49527824 0.088738665 -0.34955993 0.35121638 0.09959728 -0.44764644 0.3524875 0.35519436 0.19991681 0.00077091384 0.38933957 0.3490644 0.2785988 0.049456228 0.8999066 0.30298004 0.1531564 0.032349624 -0.28774223 -0.1937049
<user> -0.064958334 0.22173305 0.29209277 0.20472734 -0.10785269 -0.71269256 0.3584475 0.7371122 -0.35023543 -0.41085047 0.096368834 -0.5464527 0.15980454 0.27037555 0.11052046 -0.28064537 0.16690522 -0.5766514 -0.5402291 -1.2144322 0.08297836 0.122416735 0.24849889 -0.523147 -0.039705243 0.114784226 -0.20429675 -0.12687056 -0.49478295 0.103245065 0.36635455 -0.18018727 0.15719934 -0.648704 -0.16918363 0.16885139 0.20669581 -0.38575825 -0.0697224 -0.46886012 -0.057047542 -0.36507043 -0.17345762 0.051089447 0.5397311 -0.20947577 -0.35673285 0.07660826 0.4245552 0.4108432 -0.043446448 -0.43053982 0.02841559 0.020915024 -0.2739735 0.33747506 0.43877596 0.12523347 -0.13833985 0.52188545 0.3048308 0.052035406 0.080011666 0.14549892 -0.30677816 0.82639664 0.30264956 0.56915516 -0.51632833 0.5743347 -0.31754285 0.34703156 0.41677105 -0.15299264 0.45147264 0.33019167 0.07645946 -0.10552864 -0.16789986 -0.09961249 -0.4482113 -0.0599737 -0.5933673 0.47617573 -0.23370378 -0.077823274 0.43794575 0.095229216 0.5700692 -0.18251796 0.5107177 0.26550332 0.21671237 0.3398433 0.5007681 0.3999817 0.2234688 -0.11266705 -0.08996321 -0.00439731
the -0.14061157 0.2830657 -0.016126243 -0.18310148 0.31306246 -0.83395535 0.46191528 1.0608076 -0.08370044 -0.43148118 -0.051215973 -0.34630245 -0.20667976 0.11049485 0.34722924 -0.10774008 -0.011205493 -0.26943624 0.07448844 -0.6433063 0.12650084 0.19915017 0.6190542 0.08807459 -0.30985475 -0.22873725 -0.4068767 -0.029301047 0.07481972 -0.2314392 0.49181643 0.07476388 -0.008545798 -0.11418213 -0.02257694 0.641619 0.35901856 -0.4570606 -0.48192975 -0.8086572 0.38714847 -0.28256038 -0.2352016 -0.30455723 0.41008806 -0.16315503 -0.23797849 -0.051362094 -0.05602833 0.0045307744 0.35245776 -0.30045536 -0.22752117 -0.14335881 -0.19416319 0.11059326 0.37583682 -0.05797765 -0.37242183 0.10392461 0.021950407 0.0026617672 0.3930532 -0.27309257 -0.30368328 0.23001829 0.08958091 0.10779 -0.60245955 0.37404826 -0.3969639 0.27836227 0.41951773 0.10295528 0.49471888 0.07145341 -0.12728263 -0.08859978 -0.71580595 0.27441025 -0.07301712 0.25629348 -0.43608448 0.52982044 -0.1024521 -0.038310412 0.029483972 0.4531077 0.28039107 -0.07548344 0.47172493 0.020431083 0.19375339 0.051702436 0.77262825 0.29415524 0.1872676 -0.6985661 0.16706581 -0.5739942
is -0.093776554 0.26751357 0.07078221 -0.07735623 0.15742017 -0.81788427 0.4506039 1.036774 -0.16402243 -0.41710797 -0.0358111 -0.41483748 -0.13055332 0.22370705 0.23942406 -0.13885 -0.02034276 -0.348731 -0.035542596 -0.7573201 0.13165465 0.15928958 0.48710102 -0.006550145 -0.20135812 -0.13219947 -0.36274293 -0.07253661 -0.08556875 -0.13669068 0.486662 0.08416738 0.12811093 -0.35021958 0.051246997 0.484872 0.2883189 -0.4519439 -0.3188587 -0.8036129 0.22631237 -0.33030376 -0.23770748 -0.15562783 0.37258655 -0.21137387 -0.23224999 0.047613062 0.06127689 0.06142053 0.22246075 -0.2625363 -0.118262485 -0.047103573 -0.1537055 0.17454964 0.2863506 -0.08739913 -0.26010612 0.21145979 0.12666918 -0.030817688 0.26648372 -0.08306344 -0.28715363 0.366974 0.1764859 0.20273328 -0.5517429 0.5039063 -0.3978697 0.29090425 0.39336434 -0.004561036 0.47777796 0.14130634 -0.048758738 -0.07139346 -0.4812685 0.10844821 -0.17952587 0.21959203 -0.4748791 0.42473787 -0.1705168 -0.030239118 0.09409804 0.3338536 0.29998606 -0.14188856 0.5197769 -0.031198043 0.18944952 0.1269119 0.59182674 0.2229124 0.19103712 -0.47852197 0.074428424 -0.41718066
a -0.16253026 0.28418362 0.039515354 -0.14817652 0.22576138 -0.8518826 0.48615003 0.9888942 -0.1406357 -0.4242252 -0.059698347 -0.38992372 -0.20793132 0.1254917 0.2623572 -0.1324119 -0.015799182 -0.30091575 -0.02029277 -0.7443068 0.14438277 0.22865877 0.58041626 0.020208504 -0.24581522 -0.21899946 -0.34769717 -0.04439328 0.057740614 -0.16405325 0.48851243 0.06324539 0.058026407 -0.23001808 -0.07107082 0.5997916 0.39448637 -0.40405342 -0.39529887 -0.7844786 0.3817217 -0.31739956 -0.28497753 -0.2756791 0.38963023 -0.17760275 -0.24434514 -0.005393529 0.038561504 0.0665852 0.29626498 -0.35731015 -0.12637208 -0.06280032 -0.20857318 0.17366797 0.401562 -0.081204094 -0.38303348 0.16233702 0.07609482 0.019818584 0.34272268 -0.26703298 -0.27709964 0.36687925 0.100985445 0.1413927 -0.5986985 0.41509518 -0.38521886 0.30944422 0.45949197 0.09722707 0.4640141 0.11139559 -0.12920593 -0.11102203 -0.64909077 0.1909035 -0.08486286 0.21899366 -0.48178062 0.454463 -0.11802064 -0.08226932 0.06947388 0.4063461 0.302459 -0.04328525 0.5323623 0.09603349 0.15922466 0.04059225 0.7902152 0.30171594 0.1524644 -0.6149786 0.10576807 -0.49465677
my -0.12094084 0.26147217 0.034379546 -0.08482362 0.257024 -0.8513407 0.4824951 1.0625405 -0.15558119 -0.41470292 -0.055781938 -0.43179476 -0.18175918 0.21712549 0.28811112 -0.0985487 0.008563195 -0.27013448 0.028491639 -0.7298888 0.14585485 0.21158053 0.5885292 -0.022903817 -0.22367238 -0.19597094 -0.4083249 -0.023061965 0.053299814 -0.1927541 0.47002423 0.09753977 0.066511795 -0.16680196 -0.069986165 0.60549724 0.3693273 -0.45353043 -0.4340413 -0.81507206 0.36391193 -0.31568417 -0.2666949 -0.27886614 0.43204248 -0.15950298 -0.2543297 -0.009323035 -0.016282378 0.07296839 0.27780515 -0.33087605 -0.19960904 -0.07504439 -0.17472441 0.15572113 0.37509215 -0.090148985 -0.3618348 0.14472225 0.045104105 0.01580142 0.34355107 -0.22278589 -0.33541894 0.3398487 0.07543954 0.18202285 -0.6008164 0.4594213 -0.3869232 0.30382603 0.44202456 0.08680683 0.50242174 0.08243695 -0.079298325 -0.14868614 -0.654491 0.23012085 -0.10904274 0.18389966 -0.4756713 0.51946545 -0.080339216 -0.085055925 0.06894348 0.3866595 0.30060893 -0.0858058 0.49067286 0.06856336 0.21451117 0.097940266 0.74607664 0.32371315 0.17217411 -0.5900654 0.12668088 -0.486415
not -0.05335541 0.21218705 0.3690953 0.34770668 -0.013849667 -0.7593131 0.49853098 0.85507643 -0.34208214 -0.54591155 0.15085883 -0.57806957 0.051369607 0.27417782 0.078776225 -0.14496398 0.11089192 -0.44757447 -0.42648154 -1.0102795 0.052861046 0.2305981 0.3126537 -0.5853432 -0.095939666 0.13083604 -0.246055 -0.040363375 -0.44088745 0.08773912 0.21543466 -0.2594751 0.25083274 -0.57477033 -0.32160684 0.25872457 0.2764172 -0.33567375 -0.18078393 -0.51520354 0.16007273 -0.36888137 -0.2970166 0.02205768 0.5859274 -0.25823176 -0.3037977 -0.018273514 0.4518887 0.3457716 -0.11388506 -0.4110836 0.024605365 -0.047990974 -0.19631399 0.35498497 0.42187616 0.16333312 -0.17555152 0.46822983 0.26471308 0.11362308 0.060465164 0.101028495 -0.19307931 0.7493376 0.12857248 0.5975016 -0.4665568 0.5216878 -0.21549134 0.33832043 0.58860487 -0.07964501 0.4411554 0.21873851 -0.014632886 -0.2530463 -0.16244484 -0.15731825 -0.4716263 -0.0069167023 -0.5272627 0.42971513 -0.15015753 -0.21061853 0.47468346 0.18103345 0.54454786 -0.11517708 0.42270398 0.24683401 0.15716623 0.2851974 0.5111766 0.38068238 0.16064142 -0.087000094 -0.0971696 -0.060539883
it -0.10399439 0.25074783 0.18554278 0.05034095 0.13003898 -0.7437941 0.45693013 0.87646437 -0.21108961 -0.42326102 0.04643189 -0.4623116 -0.010396547 0.19134152 0.2194794 -0.14560345 0.008386278 -0.36596048 -0.2277723 -0.85813826 0.13169557 0.22581406 0.44010597 -0.21885636 -0.14835815 -0.04530485 -0.30124766 -0.09096244 -0.15920897 -0.09027489 0.36880264 -0.061215773 0.1492959 -0.3016715 -0.10409609 0.45038086 0.28359333 -0.36244953 -0.2742431 -0.66193163 0.20696628 -0.30496967 -0.24817067 -0.1258727 0.47088125 -0.18245107 -0.28497806 0.012642602 0.21265736 0.1656963 0.09423941 -0.3398895 -0.06440618 -0.042959627 -0.16488053 0.2330507 0.36124775 0.010011769 -0.22377291 0.26284668 0.11378378 0.039172143 0.2462096 -0.09032177 -0.27932718 0.5075373 0.12040897 0.30802298 -0.54350954 0.47518784 -0.35640037 0.3074886 0.45883897 0.014036508 0.41455215 0.15109351 -0.04802807 -0.17044233 -0.46539855 0.061945032 -0.22251368 0.10032425 -0.46560678 0.45354095 -0.12079275 -0.08352254 0.2325671 0.23911405 0.35163411 -0.10780503 0.41825876 0.14436868 0.18160932 0.16444808 0.63767016 0.34593624 0.14083967 -0.33811858 0.0047288295 -0.29349944
and -0.096744165 0.22599095 0.025900524 -0.033188965 0.2337108 -0.8314102 0.48424473 0.98695064 -0.13605589 -0.42581603 -0.0045217853 -0.41786826 -0.19268803 0.17476253 0.16418028 0.038600206 0.086899616 -0.34001416 0.02337372 -0.79077995 0.1915387 0.2693553 0.51921993 -0.14705266 -0.1560984 -0.18537824 -0.38960868 0.012326775 -0.00042760177 -0.20317878 0.5452054 0.061518278 0.2263464 -0.30868793 -0.20749731 0.600842 0.41060352 -0.35269833 -0.38942885 -0.6818016 0.38511762 -0.28659317 -0.31228706 -0.21349342 0.3779643 -0.16256796 -0.07048847 -0.033491936 0.018208945 0.19108197 0.2645073 -0.30307725 -0.18773906 -0.0018327008 -0.106539845 0.14793713 0.3700533 -0.011334448 -0.31597134 0.13672693 0.03643309 0.024234142 0.31768426 -0.19193608 -0.27944803 0.42491868 0.09929318 0.20927568 -0.53669393 0.53119427 -0.30107898 0.3017691 0.49893317 0.11725027 0.49479872 0.01160431 -0.07647414 -0.22807598 -0.5618824 0.2313201 -0.22189997 0.16988343 -0.46889758 0.46070006 -0.07576032 -0.16050689 0.14831732 0.3791707 0.30298665 -0.044235468 0.4770378 0.15057635 0.18546197 0.12738787 0.72472 0.23366727 0.13703546 -0.34061566 0.02323165 -0.38050905
in -0.081403635 0.23912941 0.06911875 -0.106504634 0.24487256 -0.8513908 0.4588049 1.0594643 -0.12145105 -0.4373756 -0.012234674 -0.40875834 -0.17112222 0.17759252 0.25335446 -0.040792495 0.012692018 -0.26963928 0.052463014 -0.7120978 0.14539808 0.20815594 0.5398969 -0.06083422 -0.20638713 -0.19686334 -0.4148293 0.0072404617 0.025831444 -0.21175218 0.4584019 0.06732167 0.17451705 -0.24318644 -0.099420406 0.6063595 0.40947896 -0.42487162 -0.4320124 -0.77003723 0.35900733 -0.28799176 -0.30770522 -0.21278481 0.36277205 -0.16725357 -0.15672642 -0.010028834 -0.020929953 0.108764075 0.25729725 -0.29587457 -0.20287429 -0.051579837 -0.13138756 0.15960722 0.34900403 -0.032854613 -0.29021102 0.14330709 0.0064802035 0.007232792 0.32293507 -0.20314254 -0.29647183 0.33673877 0.07467645 0.14801946 -0.5419751 0.4552258 -0.33753836 0.3067053 0.46142915 0.104567304 0.49466434 0.08730263 -0.09423215 -0.18775688 -0.6013136 0.21998271 -0.13463841 0.23844132 -0.44620183 0.47773397 -0.100790024 -0.06931441 0.07101954 0.37529266 0.32380688 -0.047585998 0.49304378 0.070892856 0.19506119 0.12410631 0.701102 0.27440178 0.17015088 -0.50520045 0.09093552 -0.50212723
for -0.053484038 0.26671913 0.020112814 -0.115252964 0.26273042 -0.8491913 0.44812614 1.0490057 -0.1182778 -0.41265327 -0.028521897 -0.3655468 -0.20771313 0.16958626 0.26601517 -0.063589916 0.01045906 -0.27823633 0.07040466 -0.72178966 0.15981935 0.18082146 0.5189725 -0.06352386 -0.23885371 -0.23224148 -0.4290828 0.01605061 0.037891716 -0.21447028 0.5060824 0.049789593 0.12252573 -0.2705992 -0.061378047 0.5942435 0.3934017 -0.4143786 -0.4459117 -0.7717129 0.33412766 -0.2690949 -0.26881316 -0.20963973 0.32277632 -0.15763287 -0.13455355 -0.014468883 -0.032979418 0.13763796 0.3168564 -0.3029485 -0.15964216 -0.04258342 -0.15990196 0.16722752 0.37298313 -0.030033521 -0.30484697 0.15274104 0.033159133 0.003376997 0.31787392 -0.22217768 -0.30630615 0.335726 0.12507771 0.1409014 -0.56780785 0.4546791 -0.371107 0.29251724 0.44978774 0.081472866 0.5049042 0.08153329 -0.10743257 -0.11942582 -0.6269078 0.20665628 -0.16123514 0.27207002 -0.5033566 0.46107072 -0.1110787 -0.054233342 0.03621663 0.36251444 0.3261296 -0.057047073 0.50491136 0.030860167 0.15051197 0.09993908 0.71121424 0.22776301 0.14626451 -0.53113556 0.083188154 -0.5063233
of -0.08783592 0.2582782 0.027100768 -0.24156904 0.3240593 -0.87339664 0.43901464 1.1711423 -0.06811068 -0.4374034 -0.087113254 -0.3790556 -0.22331113 0.16732492 0.38246596 -0.13167205 -0.058984954 -0.208005 0.15817796 -0.6393997 0.12198114 0.14833516 0.599653 0.09674157 -0.2863545 -0.24548703 -0.5105403 0.017171454 0.089597836 -0.24667151 0.48190555 0.09633071 0.051929817 -0.19423977 0.02539029 0.661453 0.38857722 -0.5066536 -0.51826155 -0.90432 0.36803207 -0.26934746 -0.2771788 -0.29185525 0.31294927 -0.17386328 -0.22667672 0.0052986774 -0.12378255 0.018686399 0.3640865 -0.288811 -0.19086479 -0.11087266 -0.15553087 0.15129623 0.3578841 -0.080817714 -0.28109372 0.14659347 -0.013850204 -0.04316043 0.3994129 -0.24413684 -0.33647537 0.21223435 0.102436766 0.035401206 -0.62115926 0.39964765 -0.4208203 0.29430678 0.43433273 0.057137918 0.5405249 0.126659 -0.1109874 -0.11551627 -0.73164815 0.25381315 -0.07866523 0.34188178 -0.48633817 0.5418895 -0.15170442 0.0092347795 -0.051320508 0.4308128 0.31068772 -0.0670204 0.5440642 -0.011985743 0.20942953 0.053144474 0.7553388 0.27569744 0.18036419 -0.7391234 0.20489886 -0.6606652
am -0.087184444 0.25679806 0.091242306 0.047222406 -0.040835973 -0.7448199 0.41658983 0.5971152 -0.20272389 -0.40226492 0.09695288 -0.41979378 0.0022623732 0.07224219 -0.0071462346 0.03210065 0.35223508 -0.5938296 -0.336133 -1.277446 0.2466493 0.2790378 0.33485863 -0.4625862 -0.042307988 0.04902304 -0.29803252 -0.15665726 -0.2725777 -0.011623586 0.6883129 0.043664336 0.29160053 -0.62909526 -0.2815231 0.30931428 0.22277328 -0.21049564 -0.09968257 -0.3749036 0.13231468 -0.26663554 -0.13751133 -0.014235566 0.3807624 -0.19199908 -0.047931492 -0.0314305 0.3023494 0.4099069 0.16098443 -0.3619109 -0.01499809 0.08213254 -0.17370552 0.18889946 0.44493 0.1548592 -0.24333425 0.37246352 0.21964197 0.05774424 0.1824792 0.017879017 -0.26307556 0.7419586 0.3587402 0.4382434 -0.467944 0.5831472 -0.27752963 0.23947495 0.35997668 0.07503681 0.4113673 0.098841056 0.05568189 -0.14199814 -0.30068967 0.08326234 -0.47705877 0.0068023982 -0.50332665 0.38834938 -0.20440948 -0.1532234 0.5178422 0.27888492 0.3566668 -0.17436938 0.5846153 0.3747889 0.08569308 0.2632275 0.5589066 0.16412175 0.2592249 0.070396855 -0.21712324 0.114358686
have -0.04662079 0.2174461 0.065792054 0.09512436 0.10752406 -0.74160403 0.4884305 0.79008174 -0.16703135 -0.44937307 0.13933118 -0.4636247 -0.07496985 0.07178786 -0.070546925 0.049140964 0.2568232 -0.53087735 -0.18351083 -1.0196158 0.21927196 0.30976522 0.301406 -0.39265573 -0.10730438 -0.043244403 -0.21505761 -0.100014955 -0.19238882 -0.1268616 0.50874543 -0.06038526 0.31138054 -0.5135652 -0.36641055 0.3351279 0.27840742 -0.2075883 -0.16003616 -0.39606002 0.30252084 -0.28675234 -0.19952558 -0.06393115 0.47173336 -0.18800958 -0.031045305 -0.0657172 0.2046412 0.3845423 0.18372674 -0.3450126 -0.112662315 -0.0114399 -0.12846527 0.119453445 0.46717674 0.15633543 -0.27721217 0.25953552 0.13262387 0.03960572 0.22286108 -0.055455156 -0.27992183 0.66660315 0.23597792 0.4591435 -0.4889495 0.5429447 -0.222632 0.2527708 0.494694 0.08059396 0.45821464 -0.033190783 0.003912738 -0.23970926 -0.31410712 0.15810275 -0.42694846 -0.0015624716 -0.4645634 0.3779217 -0.09886248 -0.23650604 0.4282875 0.30622447 0.33583665 -0.078658395 0.46422127 0.27707458 0.13759384 0.2573118 0.60004777 0.23925586 0.1943695 0.09551936 -0.1341076 -0.0067571243
you -0.102534726 0.22235103 0.33568168 0.30919454 -0.056884386 -0.78442484 0.41145098 0.88768375 -0.360662 -0.4411684 0.09777761 -0.584158 0.062533215 0.32403466 0.08924268 -0.25797772 0.05023464 -0.43609864 -0.43370152 -0.9914697 0.033224043 0.15529628 0.23905799 -0.51258177 -0.085417725 0.10467189 -0.22695246 -0.034955665 -0.46730426 0.07018871 0.19911128 -0.27774057 0.15882581 -0.5307378 -0.2445505 0.20985751 0.28680655 -0.41501984 -0.15590447 -0.4838583 0.056336757 -0.40756512 -0.29261607 0.038322683 0.6306062 -0.17414884 -0.36179683 -0.005994687 0.40964898 0.32806113 -0.049432162 -0.44146132 0.01938515 -0.03914187 -0.24835144 0.35563645 0.5061732 0.11908054 -0.17550886 0.5257498 0.24093127 0.10192177 0.025426662 0.036501095 -0.21764141 0.7149107 0.20279063 0.6153141 -0.4789643 0.5097153 -0.31832778 0.34442848 0.51422155 -0.16768317 0.53141737 0.30966526 -0.015960004 -0.1416212 -0.18422088 -0.13074657 -0.46237737 -0.05231431 -0.5260823 0.5619709 -0.19471294 -0.08907813 0.4364013 0.09301412 0.5809379 -0.13833073 0.47188324 0.29938644 0.24180163 0.28925118 0.56134814 0.45375946 0.24308442 -0.1310734 -0.042928033 -0.008168256
but -0.0729459 0.19900712 0.16423512 0.07895174 0.1053901 -0.7438692 0.44993737 0.84389347 -0.20079038 -0.43436265 0.059669282 -0.4743813 -0.06756357 0.18100254 0.07282885 -0.05053762 0.11357761 -0.46231252 -0.22298296 -0.99907786 0.18500935 0.24859013 0.41834632 -0.33323753 -0.10285463 -0.043628916 -0.28183502 -0.06956511 -0.21605507 -0.096671656 0.46514085 -0.062663265 0.2627639 -0.49363682 -0.23887986 0.42874217 0.3447691 -0.35758996 -0.26142934 -0.61238116 0.24410608 -0.3343715 -0.2811723 -0.100308344 0.47329435 -0.18554033 -0.16733535 -0.009637113 0.21854171 0.29471853 0.116743185 -0.37544972 -0.09100074 0.011892062 -0.15886475 0.21524954 0.41337267 0.07298651 -0.2652145 0.29382208 0.14290088 0.06090534 0.20643094 -0.07046702 -0.26531383 0.61143786 0.18033698 0.40372825 -0.49769953 0.5456455 -0.27569282 0.34188443 0.48924783 0.0351442 0.47831348 0.08063517 -0.009144576 -0.21784739 -0.36445028 0.07704265 -0.35215288 0.066939816 -0.504137 0.4277238 -0.1474356 -0.15552232 0.3132546 0.25274888 0.3736644 -0.100353114 0.4810168 0.2207353 0.18455824 0.22495173 0.6178335 0.32080287 0.1648072 -0.17840962 -0.07102338 -0.18294634
me -0.08636544 0.25354192 0.1122978 0.030004386 0.14662576 -0.805298 0.47630173 0.96080494 -0.2070043 -0.42585716 -0.0046287845 -0.48007756 -0.05671982 0.20695719 0.19678241 -0.14651833 0.041622594 -0.37474805 -0.09727846 -0.8102456 0.13670972 0.17085111 0.39839685 -0.20229839 -0.17601222 -0.08966389 -0.31901518 -0.07670339 -0.14693992 -0.10258194 0.3940637 -0.034252476 0.10783615 -0.34772143 -0.10541571 0.45784807 0.2899103 -0.3959035 -0.29932082 -0.65365815 0.23668036 -0.35899746 -0.2455786 -0.14570826 0.49264857 -0.21214497 -0.26288497 -0.011232519 0.13896868 0.20802861 0.1888498 -0.32397822 -0.09733368 -0.06663942 -0.14805268 0.22692122 0.42029482 -0.0101664 -0.2733194 0.2758525 0.12375282 0.01083276 0.21077946 -0.11229804 -0.29389134 0.50308526 0.14233713 0.32654107 -0.5165416 0.47447664 -0.34353387 0.27665854 0.46166304 -0.0045448896 0.5091592 0.16365477 -0.029223321 -0.13612205 -0.4443419 0.14814271 -0.26690567 0.13341236 -0.484506 0.5004123 -0.10993685 -0.08868296 0.21131079 0.31819406 0.4127282 -0.10143146 0.49486536 0.13176416 0.2158133 0.15738688 0.65806925 0.3434246 0.16758196 -0.37187406 0.051663432 -0.31418148
on -0.039784428 0.22054198 0.044430856 -0.10256128 0.24646418 -0.84950054 0.46230432 1.0689819 -0.13644797 -0.42954168 -0.06019777 -0.4070517 -0.16065851 0.18533257 0.28915948 -0.07412218 0.0063294596 -0.27348655 0.061888173 -0.71996915 0.17044894 0.15511023 0.53180784 -0.08729504 -0.21829897 -0.16724497 -0.4643169 0.007911885 -0.009658053 -0.20814025 0.50252223 0.027020104 0.1104975 -0.27697977 -0.05855079 0.5907596 0.39051345 -0.44152313 -0.43676186 -0.7903007 0.29925054 -0.28819063 -0.2863573 -0.22457127 0.3860004 -0.16816963 -0.22747014 -0.0384173 0.008675799 0.098334886 0.2667323 -0.3130705 -0.16327207 -0.06738491 -0.12451535 0.19348198 0.38352686 -0.03218059 -0.27674967 0.18658556 0.0452997 0.0054657357 0.3308165 -0.18961008 -0.32341188 0.3684768 0.13078766 0.17104244 -0.5778219 0.45007202 -0.3820569 0.3042982 0.47034788 0.052081116 0.54383284 0.11872544 -0.09411636 -0.13032259 -0.6510172 0.21200013 -0.2072902 0.22884735 -0.48919314 0.5450948 -0.12897071 -0.061607223 0.077156596 0.3863239 0.33871403 -0.11670625 0.5482409 0.08145424 0.20734085 0.11713304 0.7382225 0.28182593 0.17275617 -0.53558636 0.08296437 -0.4959573
so -0.08102994 0.26654378 0.1845014 0.11106598 0.00920682 -0.7505768 0.4613085 0.789978 -0.23426212 -0.4433408 0.053578056 -0.45928958 0.005298976 0.2598516 0.16560382 -0.15582474 0.12674206 -0.4751968 -0.3267424 -1.0008832 0.13769984 0.22503982 0.3675564 -0.32992855 -0.10467169 0.0040666284 -0.28258693 -0.08742169 -0.22374858 0.004627583 0.4366553 -0.047681216 0.1920366 -0.482872 -0.19620131 0.41772133 0.2943245 -0.37811488 -0.23829862 -0.6121833 0.1252412 -0.27501228 -0.22660597 -0.08050442 0.43808025 -0.20912929 -0.25948033 0.0069903783 0.27827218 0.3023357 0.039847784 -0.36142883 -0.08421945 0.007457592 -0.1723457 0.2855183 0.3864623 0.029940374 -0.21864873 0.36683074 0.1882943 0.038089976 0.18005992 -0.05843367 -0.29321617 0.67184603 0.1689659 0.38985252 -0.5228711 0.56078494 -0.3218336 0.36070526 0.4740606 -0.023250518 0.45618477 0.19524588 0.016700635 -0.13547903 -0.37395048 0.0033865145 -0.33739313 0.06990524 -0.5362316 0.45350006 -0.12662128 -0.11068732 0.32732683 0.21355718 0.3951542 -0.16461654 0.50133115 0.2226769 0.15149213 0.21116427 0.5597105 0.26454756 0.11410723 -0.22317101 -0.03787028 -0.13027982
that -0.072036035 0.24276574 0.21154366 0.10150982 0.038106564 -0.7703721 0.421807 0.8697151 -0.23863418 -0.43843722 0.051469937 -0.49028748 0.028569112 0.23936462 0.19875732 -0.21936938 0.055319767 -0.43209946 -0.31245384 -0.9609032 0.10065853 0.16835023 0.3484179 -0.29008865 -0.14154641 0.003350121 -0.27971599 -0.09297542 -0.30135384 -0.018561248 0.35645694 -0.12211001 0.122564934 -0.44433358 -0.10761032 0.3496205 0.26086688 -0.38325915 -0.23223703 -0.6098218 0.10740587 -0.3444296 -0.23558722 -0.06403002 0.48912168 -0.22709933 -0.3468631 0.019021925 0.28627178 0.25899082 0.070943885 -0.3814598 -0.030633653 -0.039603233 -0.20625816 0.28754658 0.4203081 0.037838027 -0.20123357 0.38887763 0.19027857 0.05834638 0.17608757 -0.033654854 -0.3090077 0.60540366 0.18057127 0.38180408 -0.512055 0.4761981 -0.34607315 0.31492224 0.43542165 -0.085398726 0.47511512 0.25643826 0.0033631134 -0.10632402 -0.3554546 0.0033271266 -0.32109144 0.08192594 -0.5112992 0.4717871 -0.19708687 -0.044886377 0.28388223 0.20874958 0.43487746 -0.12929603 0.47215933 0.17103346 0.18830235 0.2271235 0.5789422 0.3447116 0.1751376 -0.30518633 -0.027192134 -0.1994086
do -0.07933443 0.14214265 0.29550055 0.39506853 -0.12726624 -0.6036671 0.43383583 0.6989059 -0.3024336 -0.4641162 0.18856989 -0.5095786 0.08633095 0.18778585 -0.24847187 -0.02953914 0.24407673 -0.6325026 -0.47787404 -1.1206083 0.21764693 0.287144 0.19144598 -0.6317438 0.01745068 0.13474356 -0.10278207 -0.08894142 -0.4693426 0.03462091 0.3636237 -0.25678748 0.44423217 -0.75649714 -0.42641485 0.18948029 0.25674027 -0.29312104 -0.048707478 -0.34918708 0.17757986 -0.4074402 -0.31153402 0.06304901 0.62240636 -0.25068074 -0.07364769 -0.035972808 0.39822865 0.45170194 0.006257046 -0.44444615 -0.13630347 0.01233123 -0.20074433 0.20722978 0.45782286 0.1644768 -0.26396075 0.37689444 0.23549901 0.14870603 -0.02655834 0.09996772 -0.15919377 0.9249203 0.3228687 0.7717234 -0.4203292 0.6174601 -0.15675838 0.37598845 0.55831516 -0.067971215 0.50818425 0.049186967 0.018211167 -0.27098188 -0.08290067 0.020244554 -0.64207894 -0.1503441 -0.4600451 0.3998374 -0.15254779 -0.28483477 0.62232506 0.1116404 0.39204535 -0.12317169 0.45758754 0.30054262 0.17758225 0.3355662 0.4773208 0.38927543 0.17591538 0.34669736 -0.27481642 0.27285156
at -0.09848425 0.26280835 0.025237562 -0.01372068 0.272273 -0.8760733 0.51181936 1.0267961 -0.13526204 -0.46660286 -0.01804547 -0.42206937 -0.22005926 0.18171641 0.19992034 0.085986115 0.07197145 -0.26686555 0.08605149 -0.7502639 0.21305494 0.3069076 0.515051 -0.12450788 -0.14773937 -0.20055406 -0.43960056 0.042704 0.07616092 -0.23794182 0.52780503 0.112494074 0.21828781 -0.3196783 -0.21973065 0.67257535 0.5012755 -0.34701568 -0.46674836 -0.64436495 0.462145 -0.27624294 -0.37608856 -0.23752773 0.35307527 -0.1552024 -0.00017412713 -0.06993402 -0.02117315 0.16273756 0.33204097 -0.32866722 -0.24584825 0.017412722 -0.102909915 0.1826957 0.367732 -0.03686603 -0.3552028 0.09509212 -0.02727623 0.041398384 0.34147528 -0.2159994 -0.21293886 0.4059124 0.060463592 0.18162273 -0.5426409 0.5628438 -0.31058964 0.29741985 0.5180504 0.1826938 0.47984704 0.013281446 -0.14810704 -0.23896684 -0.63524055 0.26262662 -0.21355669 0.20122197 -0.44329908 0.41948807 -0.06286705 -0.15401524 0.17757542 0.4188248 0.30091766 -0.015359839 0.4870001 0.1374427 0.13469614 0.10880285 0.7721528 0.20485894 0.14711931 -0.35060176 0.005733601 -0.410165
just -0.08698034 0.2442339 0.11765517 -0.038060527 0.12705247 -0.8236304 0.43069297 0.92574584 -0.18193772 -0.4165239 -0.011406532 -0.44207862 -0.10682421 0.1831698 0.21962741 -0.07269728 0.07968347 -0.39188805 -0.08896489 -0.88959336 0.1757035 0.19778186 0.50255454 -0.20348299 -0.18625912 -0.10128482 -0.36472136 -0.035295516 -0.08546595 -0.13528281 0.5024668 0.015512101 0.14528167 -0.37671262 -0.11812835 0.46661904 0.36478773 -0.39271525 -0.35316557 -0.6600908 0.26063377 -0.28354824 -0.24862142 -0.18671516 0.39870772 -0.17568995 -0.20766093 0.0047792895 0.09879777 0.19677722 0.20201628 -0.31907222 -0.08618882 0.0066616973 -0.15793121 0.21536998 0.40754396 0.04513225 -0.27131966 0.24989139 0.090520605 0.023340672 0.2511917 -0.10054206 -0.2806642 0.46831453 0.16663522 0.23489428 -0.5249282 0.51068777 -0.36963013 0.29527003 0.44613624 0.037780967 0.49648312 0.12020993 -0.044841904 -0.15663806 -0.5095871 0.13312542 -0.24125749 0.14274374 -0.5013955 0.48540905 -0.16633658 -0.08702961 0.17033662 0.3299787 0.3506903 -0.07494714 0.52916837 0.13411964 0.16953461 0.14743048 0.6838877 0.30093777 0.1994239 -0.39999297 0.018380357 -0.34190997
was -0.08878127 0.27554157 0.10077571 -0.05206199 0.074675985 -0.86089456 0.46630844 0.9070179 -0.21755889 -0.42415363 0.063627526 -0.43343818 -0.070691526 0.16440229 0.18928812 -0.1225482 0.10790922 -0.45086408 -0.20266275 -1.0531956 0.12036525 0.19819935 0.41894767 -0.1600276 -0.16671623 -0.110498734 -0.32206005 -0.14365269 -0.16286784 -0.11689445 0.54255486 0.09020285 0.16209067 -0.4150473 -0.06917574 0.397587 0.29401582 -0.4187656 -0.23494105 -0.64414924 0.19089065 -0.28856888 -0.15776716 -0.14262502 0.3829282 -0.18181096 -0.20406562 0.040362567 0.18086945 0.197952 0.20051005 -0.2764857 -0.068748206 0.015032353 -0.16220814 0.19921157 0.389795 0.07274636 -0.19421759 0.29989716 0.18729217 0.016829161 0.26646283 -0.070419654 -0.3039368 0.48459527 0.21432085 0.2529257 -0.58748424 0.5117051 -0.38567147 0.2732243 0.40425336 0.02344034 0.47478935 0.16071987 -0.00078421395 -0.083823316 -0.4462429 0.0754869 -0.2187821 0.14328298 -0.5078126 0.46559983 -0.20104519 -0.028721478 0.23219286 0.32313976 0.39075816 -0.089363314 0.56167024 0.13285266 0.14043769 0.22437917 0.6590083 0.23887248 0.279458 -0.35414168 0.020498898 -0.3149281
this -0.09520689 0.277275 0.079468854 -0.04955307 0.20149815 -0.80159116 0.4664014 0.959189 -0.16319315 -0.43482888 -0.014801915 -0.40291724 -0.13054092 0.16635694 0.17491208 -0.073917635 0.0698995 -0.34251136 -0.108308464 -0.86252344 0.169793 0.2272832 0.47051635 -0.1609211 -0.17868723 -0.14370681 -0.36601517 -0.044793226 -0.04251904 -0.13609736 0.48752064 0.0078470595 0.10854374 -0.30006987 -0.12272176 0.5657147 0.3939073 -0.37674174 -0.35743925 -0.7326777 0.318091 -0.33183017 -0.26147985 -0.2060071 0.41841403 -0.22200553 -0.20443812 -0.062962264 0.11101123 0.14326186 0.21011287 -0.37139547 -0.15760367 -0.062396247 -0.13858242 0.1632237 0.3505638 -0.03673492 -0.34264442 0.19602726 0.09870602 0.014193687 0.31810585 -0.18554826 -0.26877594 0.49456593 0.15606989 0.22326326 -0.5907892 0.48926356 -0.36778548 0.29430148 0.4632162 0.06400563 0.47227332 0.084192954 -0.10380464 -0.15829922 -0.56822973 0.18757129 -0.18790102 0.197941 -0.5058818 0.47648248 -0.10863271 -0.12735833 0.18749987 0.37029627 0.3034377 -0.10401359 0.4577049 0.13326733 0.18140674 0.087165795 0.70963967 0.25619152 0.11632296 -0.39019555 0.009012708 -0.34023702
work -0.14087692 0.19484437 -0.048098646 0.090367265 0.29648158 -0.72697896 0.5778596 0.8697129 -0.100229 -0.38682535 0.034086812 -0.3423164 -0.30193225 0.104901716 -0.06030102 0.21974616 0.17360279 -0.26386914 0.08076838 -0.61635596 0.25696987 0.37538773 0.4505618 -0.19098435 -0.13273415 -0.23923694 -0.27629152 0.090257086 0.08028322 -0.20158581 0.479859 0.07962892 0.33974302 -0.24368164 -0.42652693 0.5839547 0.4362585 -0.1825381 -0.32666463 -0.45068187 0.52187806 -0.25275677 -0.37602568 -0.20615874 0.42906305 -0.15847564 0.16540948 -0.17824785 0.055213954 0.23924875 0.27455884 -0.26613915 -0.27553472 -0.009006148 -0.052782573 0.041626606 0.38433036 -0.0037724636 -0.43575966 0.009074235 -0.029001744 0.07026922 0.27816632 -0.31566688 -0.20353615 0.41495928 0.04814812 0.28434232 -0.438835 0.53613055 -0.13405946 0.24577177 0.54471785 0.25436214 0.40376267 -0.21347369 -0.10694981 -0.30247563 -0.5404653 0.27976245 -0.24250388 0.101889074 -0.3027744 0.35484692 0.07665309 -0.3318517 0.25105935 0.42833966 0.14853057 0.020280534 0.378453 0.20737277 0.1377452 0.023502044 0.7216414 0.18379985 0.079303436 -0.075306214 -0.03335627 -0.18882474
be -0.09629404 0.23180842 0.04968028 0.19687094 0.2059428 -0.8033289 0.58445483 0.8849988 -0.14683856 -0.42518827 0.126641 -0.47922194 -0.20822912 0.22180346 -0.047337804 0.050054844 0.1552448 -0.3758442 -0.13167417 -0.78264546 0.11831995 0.3428762 0.33916172 -0.29253957 -0.11773875 -0.12901852 -0.27159685 0.009757292 -0.1606219 -0.16595975 0.45288655 -0.12362786 0.28937846 -0.4095477 -0.38986847 0.3910372 0.37876603 -0.19043076 -0.22057319 -0.5060848 0.3172528 -0.3395489 -0.3580271 -0.13011654 0.5180467 -0.20682001 -0.073633865 -0.07302941 0.19080527 0.34727758 0.14504299 -0.33413044 -0.1374983 -0.0414409 -0.065469444 0.16299935 0.50959104 0.08135215 -0.32964337 0.27182096 0.05765144 0.05192731 0.22751312 -0.19273447 -0.2647752 0.55221885 0.11896568 0.45777923 -0.48544708 0.5692314 -0.20474935 0.3392569 0.5917614 0.051807456 0.4739314 -0.06615329 -0.10886072 -0.25024843 -0.3456414 0.054773852 -0.35997024 -0.005474749 -0.3531781 0.3918336 0.008485797 -0.26914942 0.31299296 0.2957272 0.3473291 -0.040303096 0.37826285 0.23057503 0.20183489 0.119453035 0.67754614 0.27291366 0.15270615 0.015605706 -0.10079237 -0.13591538
up -0.08509248 0.23860523 -0.021465141 -0.03032052 0.23605141 -0.8547364 0.54735 1.0191627 -0.11093723 -0.4226578 -0.030678734 -0.40437984 -0.20701607 0.18271868 0.13037637 0.06503207 0.1058448 -0.32001606 0.057171725 -0.76317143 0.24602258 0.29043058 0.5203626 -0.08509978 -0.16639486 -0.23765913 -0.36911842 0.00877002 0.04729102 -0.19816864 0.54766375 0.09399605 0.24184115 -0.3043847 -0.23276614 0.6089532 0.4251179 -0.36479783 -0.41739264 -0.6807655 0.38377106 -0.23569052 -0.2969029 -0.25896236 0.42435384 -0.16495433 -0.10028536 -0.07454563 0.022544082 0.18880315 0.2647223 -0.30103734 -0.21788481 -0.033061016 -0.098456986 0.12082181 0.37913024 -0.029198755 -0.37051323 0.12966831 0.046100743 0.012301904 0.30486366 -0.24520428 -0.30601025 0.4023474 0.07185046 0.22009552 -0.53366536 0.5428414 -0.30110958 0.26103938 0.5164969 0.15801956 0.502442 -0.036523487 -0.09592754 -0.21599223 -0.6655591 0.26945233 -0.21309066 0.16541044 -0.48066968 0.4967599 -0.08666713 -0.18438703 0.17575727 0.41928232 0.2575015 -0.068286695 0.50603527 0.17036699 0.14322986 0.07419014 0.7597138 0.25508168 0.12650971 -0.38601652 0.04601857 -0.34204516
no -0.10882284 0.24529392 0.11862224 -0.0109506715 0.15013152 -0.7878909 0.41527867 0.8919581 -0.23555796 -0.40986532 0.0072739925 -0.46362436 -0.053707544 0.21001291 0.22751398 -0.17348103 0.07202472 -0.42534983 -0.18255441 -0.9419958 0.1269654 0.18875976 0.4274581 -0.17861855 -0.12840268 -0.05638442 -0.3269401 -0.028143905 -0.1466409 -0.09619707 0.4138231 0.014651027 0.08713327 -0.3749169 -0.06703809 0.43615493 0.3245856 -0.4528232 -0.29187077 -0.654096 0.1820898 -0.34246716 -0.23401986 -0.15153764 0.43780226 -0.17818435 -0.27475196 0.043745596 0.16488111 0.18987681 0.17131096 -0.340223 -0.0851779 -0.026090046 -0.18449908 0.19699962 0.4091128 0.021514257 -0.24924473 0.31172508 0.1540225 0.02280227 0.24838035 -0.07950691 -0.31910613 0.5100982 0.17888272 0.29533088 -0.5700127 0.51042837 -0.37972012 0.3265433 0.40801662 -0.012840734 0.45464543 0.15848565 -0.046483874 -0.098332256 -0.48142922 0.10812789 -0.28295782 0.12842466 -0.5641781 0.49955514 -0.1791672 -0.046279956 0.21589752 0.30250153 0.42097148 -0.12474837 0.52772 0.16476162 0.19917254 0.21026406 0.6777169 0.3284804 0.20279737 -0.43665996 -0.00085547124 -0.3024628
with -0.08004065 0.25177756 0.08116132 -0.06227249 0.21758719 -0.8608304 0.47337833 1.0542164 -0.15729402 -0.43540254 -0.020119553 -0.44465986 -0.1486791 0.18883702 0.25112653 -0.09793872 0.030724749 -0.3324614 0.010737415 -0.77908677 0.15701452 0.16976973 0.5063085 -0.12200862 -0.20354998 -0.16461006 -0.4159062 -0.012774173 -0.046880186 -0.19422224 0.49161464 0.02650977 0.13519482 -0.31998253 -0.0817104 0.5391648 0.3913536 -0.4280383 -0.409484 -0.7384116 0.29661718 -0.32080352 -0.28007832 -0.2006242 0.3812041 -0.1861943 -0.18295357 -0.01321178 0.027298981 0.15091895 0.24023497 -0.310688 -0.14817911 -0.02015629 -0.1470209 0.20270884 0.3943536 -0.02418534 -0.29958177 0.21308029 0.07003257 -0.0021115507 0.31195897 -0.1645745 -0.30506787 0.39970666 0.12064359 0.20066354 -0.5534891 0.47159016 -0.36390135 0.29056013 0.4697761 0.0490377 0.5182101 0.111939 -0.0915518 -0.14084691 -0.5694908 0.18575504 -0.19675852 0.19934492 -0.51123387 0.5002369 -0.14174747 -0.08305448 0.11410762 0.3573757 0.3710324 -0.08980409 0.51602113 0.087130606 0.20565873 0.12712775 0.7276996 0.2954511 0.16100451 -0.4957418 0.060658753 -0.46459448
now -0.0987235 0.19988495 0.109361075 0.022189718 0.16309744 -0.8200756 0.46781412 0.88837016 -0.1349478 -0.4320499 0.034369614 -0.43704653 -0.118433274 0.18921071 0.14622965 -0.043311886 0.10334247 -0.36803982 -0.07850274 -0.8268025 0.18640375 0.26174605 0.47120315 -0.23364508 -0.12601082 -0.11891702 -0.34586936 0.01783425 -0.08246554 -0.110575825 0.47009978 0.026810294 0.21224517 -0.36562353 -0.21612348 0.5238732 0.38390163 -0.36324385 -0.32383552 -0.6058702 0.2968162 -0.3201309 -0.28355888 -0.1590579 0.45293704 -0.1579217 -0.14542118 -0.01712773 0.13567714 0.19282015 0.21623063 -0.31434792 -0.10421845 -0.03328479 -0.15673868 0.20601729 0.39387926 0.034689788 -0.2904205 0.23884737 0.08948753 0.042773794 0.24809866 -0.17797466 -0.2288643 0.47639933 0.13139595 0.28204235 -0.5060678 0.531975 -0.30863643 0.32083717 0.47329298 0.099290006 0.48627785 0.06631926 -0.07078368 -0.19845477 -0.46831563 0.16737011 -0.2543075 0.112777844 -0.45993644 0.42396128 -0.09807837 -0.13992815 0.22544168 0.29944417 0.35475835 -0.04911581 0.4879018 0.20272078 0.15378742 0.11734497 0.6919418 0.2618695 0.1172345 -0.28993672 -0.028004631 -0.30399278
get -0.034481995 0.1634851 0.029665515 0.15951268 0.17411192 -0.7524088 0.5237442 0.8899978 -0.14294368 -0.44660786 0.12399328 -0.42216912 -0.1899356 0.13811775 -0.07047137 0.14075659 0.16402547 -0.38713613 -0.06588139 -0.79607177 0.17375721 0.30879357 0.3141082 -0.34437165 -0.10274351 -0.09711262 -0.23707543 0.022792805 -0.14649078 -0.15943927 0.43157053 -0.10354425 0.34421712 -0.4316248 -0.4003078 0.3894136 0.34074715 -0.22191828 -0.23253839 -0.39131844 0.35546553 -0.2831284 -0.30798942 -0.11200656 0.5043711 -0.20467186 0.038658038 -0.09814218 0.13825786 0.36301515 0.15525724 -0.3263472 -0.17770083 -0.028633239 -0.0398039 0.10747912 0.4625045 0.10679975 -0.30705473 0.19560674 0.057795156 0.074016556 0.2032293 -0.15308827 -0.24005283 0.56692696 0.19988003 0.47160414 -0.48508412 0.541219 -0.16600618 0.2994873 0.56487876 0.09066341 0.49482608 -0.078276895 -0.07005847 -0.2717357 -0.3603754 0.1743298 -0.3971057 -0.011546057 -0.3870606 0.41829318 -0.019168073 -0.2780013 0.35252786 0.3189335 0.29574275 -0.03170204 0.36035588 0.2666591 0.16893551 0.19406891 0.6427354 0.2630432 0.1754037 0.07837799 -0.09704903 -0.07122678
are -0.06501974 0.2125362 0.16295741 0.049753834 0.03308716 -0.82018065 0.39913237 1.0228406 -0.24952883 -0.46599793 0.019809945 -0.4759327 0.0036218192 0.2560691 0.18884432 -0.21881723 0.049296584 -0.48298526 -0.19470482 -0.869441 0.05469261 0.1062176 0.33150604 -0.2599201 -0.16631873 -0.006886375 -0.2990932 -0.14050986 -0.30146638 0.0062227384 0.41886303 -0.14107871 0.067249976 -0.4981203 -0.06657079 0.35328537 0.17762606 -0.42531475 -0.19976152 -0.614011 0.08172618 -0.38925937 -0.23152643 -0.046760984 0.5330957 -0.19163594 -0.28490758 0.0049238815 0.15563893 0.2235181 0.15603109 -0.3351409 -0.10922874 -0.060205273 -0.2629708 0.27866524 0.37800616 0.020517584 -0.23894103 0.3233461 0.15042247 0.004056815 0.17136046 0.04016238 -0.28064594 0.5778626 0.21188529 0.38972735 -0.48276725 0.46986488 -0.34039325 0.2915467 0.38546875 -0.1080256 0.5496896 0.2244314 -0.045727775 -0.11411764 -0.32087484 0.10624227 -0.29896906 0.023193011 -0.49790934 0.49939755 -0.16133733 -0.025750408 0.24952815 0.21469921 0.5304547 -0.14758642 0.5269747 0.06177275 0.2594518 0.21796227 0.5478912 0.37933606 0.2543437 -0.362715 0.05452481 -0.24121611
going -0.094038576 0.18050146 0.04681882 0.12924515 0.18372561 -0.7721897 0.5576838 0.9018949 -0.10914242 -0.46384206 0.10165798 -0.4276485 -0.17775759 0.16682322 -0.03645462 0.1107573 0.14356838 -0.30909076 -0.065596975 -0.6798821 0.22541828 0.37787014 0.3001592 -0.25559354 -0.07666738 -0.12837495 -0.20104049 0.021128498 -0.046556823 -0.18824652 0.3843855 -0.018307142 0.3873593 -0.36492568 -0.4392024 0.5278178 0.41482514 -0.21534237 -0.28642097 -0.3986065 0.44375646 -0.29425013 -0.33580497 -0.17634866 0.49884096 -0.19024017 0.08600025 -0.14004833 0.14817311 0.30481225 0.14616017 -0.34842512 -0.2447841 -0.0038270648 -0.049188722 0.101382576 0.39854506 0.026752414 -0.3007958 0.08037583 0.053035367 0.07982325 0.26237795 -0.24920057 -0.21324526 0.5865421 0.07984996 0.37494195 -0.48247978 0.59779334 -0.1257054 0.30485582 0.60686487 0.16732053 0.4869717 -0.05647167 -0.073509 -0.289415 -0.4278418 0.25289795 -0.29403684 0.026705062 -0.36978367 0.37435168 0.056442756 -0.30854985 0.3248125 0.34626165 0.206377 0.010121393 0.31306624 0.28323668 0.1463557 0.08676824 0.6231732 0.22620143 0.047761135 0.06762451 -0.098068275 -0.08091461
out -0.083040714 0.20980799 0.07080558 -0.056309573 0.20046405 -0.7900545 0.46036837 0.9449164 -0.14045452 -0.4143051 -0.0040886784 -0.37519166 -0.16175915 0.15261303 0.18878964 -0.040316164 0.034329504 -0.29959267 -0.0138918115 -0.7076399 0.1632213 0.21547972 0.50097007 -0.12480701 -0.18744385 -0.17022829 -0.34797388 0.0007263573 -0.036071345 -0.17752524 0.4968835 0.03003988 0.15176445 -0.29370204 -0.13654864 0.52510816 0.36072496 -0.3865601 -0.37131527 -0.6739463 0.32133967 -0.29282814 -0.28469002 -0.20601368 0.4082293 -0.14299382 -0.13604409 -0.037092008 0.05136184 0.13592383 0.25320542 -0.2957657 -0.18221787 -0.06836601 -0.13396627 0.15386902 0.3681625 0.0049043037 -0.32437298 0.15884122 0.02993798 0.028215628 0.28226596 -0.19896196 -0.2714931 0.40005487 0.118754774 0.20060115 -0.52763116 0.463577 -0.32479903 0.28685313 0.46195412 0.07795311 0.47639877 0.058027167 -0.08798425 -0.18221894 -0.57157 0.21627618 -0.22324248 0.16000682 -0.46100122 0.47132444 -0.110794865 -0.113580555 0.1357632 0.34950772 0.3223422 -0.055896 0.46372053 0.1197058 0.20958292 0.108742766 0.6883362 0.2860077 0.18381523 -0.39599183 0.029391786 -0.39663312
go -0.06283721 0.18065973 -0.036987346 0.29540095 0.20534143 -0.74633014 0.6795269 0.8830037 -0.098346785 -0.45366478 0.16220677 -0.43791914 -0.31412274 0.110744424 -0.27791986 0.36988693 0.26479742 -0.3103999 -0.015165327 -0.7126442 0.27410063 0.46706837 0.27998585 -0.38129777 -0.04296501 -0.15504034 -0.20040533 0.10080388 -0.037546862 -0.2661418 0.4446491 -0.06739118 0.5599874 -0.45161346 -0.6912349 0.51816136 0.5288311 -0.06748325 -0.28078556 -0.23769656 0.55557215 -0.2724273 -0.4359117 -0.1726167 0.59809905 -0.23727138 0.2740193 -0.17406921 0.13238901 0.46380278 0.2016671 -0.31869316 -0.30584222 -0.037539117 0.054637235 -0.016163763 0.5209003 0.11074393 -0.3903107 0.054198325 -0.010565249 0.12975892 0.20276184 -0.32314703 -0.19400378 0.6057829 0.15383345 0.5503261 -0.44396785 0.6321483 -0.034201723 0.3275636 0.6857829 0.26671666 0.52494276 -0.25684378 -0.10115468 -0.42142665 -0.36921948 0.28154224 -0.49340177 -0.086428136 -0.28017136 0.36254638 0.117131464 -0.5021451 0.44987294 0.39877862 0.16506034 0.03977951 0.29410985 0.4135149 0.18762642 0.14751285 0.75124407 0.2369128 0.08214165 0.37907255 -0.1905684 0.06569538
will -0.08907492 0.11096599 0.18701953 0.042896267 0.0726706 -0.76247483 0.43529752 0.8806489 -0.21259882 -0.4341859 0.06669602 -0.4465015 -0.047276754 0.15546472 0.04307099 -0.03868855 0.114981696 -0.43926233 -0.176111 -0.9340453 0.15185325 0.24737948 0.36600676 -0.36227196 -0.08028385 0.008078702 -0.26181236 -0.057249628 -0.29129368 -0.067726344 0.4124948 -0.07620314 0.25570056 -0.5358285 -0.2460138 0.3802709 0.27313355 -0.40632832 -0.22978161 -0.4864778 0.23831055 -0.35785517 -0.32273075 -0.041185334 0.52025634 -0.14739035 -0.032354716 -0.08151269 0.1871535 0.25496748 0.17451224 -0.41041818 -0.117564045 0.032177333 -0.21476069 0.21735875 0.37785923 0.10446184 -0.23228863 0.2085664 0.12588544 0.062089425 0.15805185 -0.018005049 -0.19998124 0.6428751 0.16416468 0.37412855 -0.47159633 0.5136318 -0.29224214 0.30923003 0.48748687 -0.0017446176 0.49059793 0.096111774 -0.08290392 -0.17982632 -0.3596957 0.1765144 -0.34210566 0.052953072 -0.4880958 0.43734947 -0.12678148 -0.13724457 0.3585043 0.22887303 0.3391521 -0.120104045 0.45020926 0.21102436 0.17792062 0.22915746 0.6129462 0.32528687 0.26294008 -0.10127952 -0.14236 -0.13754842
all -0.119066045 0.23662163 0.060894698 -0.024648461 0.2066092 -0.7991382 0.46470946 0.9708079 -0.14954434 -0.41510525 0.00011144382 -0.41061407 -0.17838971 0.17958397 0.18694045 -0.08063323 0.03378735 -0.3064883 -0.0287889 -0.734288 0.16714832 0.19926688 0.50827837 -0.11528353 -0.17234984 -0.17644611 -0.3470457 -0.03330018 -0.01206536 -0.14451234 0.4587069 0.03573503 0.16018975 -0.2828426 -0.12558341 0.53875923 0.36735663 -0.35503063 -0.34356004 -0.6757092 0.3286352 -0.29177958 -0.26790014 -0.20180422 0.38688773 -0.15423808 -0.14943029 -0.04558331 0.07402024 0.1407354 0.23941277 -0.32126993 -0.16376689 -0.046309132 -0.16749708 0.17477614 0.3556925 -0.0010163517 -0.3316769 0.17922921 0.05803106 0.028568745 0.2952846 -0.17742126 -0.26088357 0.40327767 0.1255134 0.2405589 -0.53229755 0.4837084 -0.29862815 0.28326756 0.45636103 0.09415662 0.46852118 0.074243054 -0.08473894 -0.15844259 -0.5337829 0.18069151 -0.17693532 0.14284474 -0.43891773 0.44909307 -0.10019979 -0.10427626 0.16633597 0.3266707 0.32824335 -0.0624334 0.47640347 0.09257378 0.16911566 0.10439396 0.68206656 0.27921754 0.16313921 -0.42013797 0.04161555 -0.36991748
today -0.113188736 0.28267702 0.04591677 -0.038560525 0.21137437 -0.8205275 0.4841161 0.9552613 -0.16722503 -0.42348686 0.0011816698 -0.4347362 -0.18232496 0.18750238 0.194127 -0.057830013 0.07705245 -0.35064325 -0.031308796 -0.79567134 0.19717358 0.27092117 0.51632595 -0.111192316 -0.1695979 -0.17929128 -0.3759264 -0.028802665 0.021661505 -0.18974492 0.4940815 0.071996264 0.19245781 -0.29448864 -0.14121561 0.58386457 0.39903566 -0.35954362 -0.37320465 -0.70398706 0.34345227 -0.29175994 -0.27178302 -0.19983184 0.38228878 -0.1729693 -0.12393252 -0.024839122 0.06596857 0.1703292 0.24345522 -0.3061763 -0.16432837 -0.011198213 -0.11828598 0.1624046 0.36212933 -0.042512257 -0.33733752 0.1580674 0.060882196 0.037070386 0.3069188 -0.196109 -0.28362146 0.4323286 0.10601646 0.22762129 -0.55346155 0.5375869 -0.31435508 0.29369393 0.47830153 0.12133862 0.46628118 0.063525915 -0.08128903 -0.17122717 -0.5779082 0.17406832 -0.18718687 0.1686156 -0.4797644 0.43272588 -0.06464532 -0.11735539 0.15934965 0.36968833 0.2989267 -0.06700069 0.47423175 0.11657181 0.15122657 0.09057896 0.7037894 0.25586823 0.11785179 -0.3784217 0.037466954 -0.3781621
too -0.09810049 0.2510604 0.14881352 0.02748928 0.10231963 -0.8263156 0.46266326 0.9049986 -0.19229364 -0.44548702 0.011466628 -0.4580761 -0.08089662 0.23603126 0.19699393 -0.15850364 0.045952763 -0.41947168 -0.17678533 -0.8874912 0.15123618 0.2174671 0.44405755 -0.25741237 -0.12191664 -0.05182497 -0.32133877 -0.022205671 -0.16027492 -0.0726352 0.43997934 -0.029531037 0.14764659 -0.40177336 -0.15132314 0.46294197 0.3315899 -0.39492828 -0.29967853 -0.65801316 0.1851765 -0.27945045 -0.26942182 -0.16213048 0.42928186 -0.20223287 -0.24115206 -0.0042133667 0.18234073 0.21902287 0.13271861 -0.34449655 -0.09733272 -0.006613644 -0.14747576 0.2627818 0.37062216 0.010536308 -0.25960013 0.27754298 0.13027017 0.032742348 0.21979958 -0.119603075 -0.2819413 0.55344176 0.11702526 0.3181279 -0.5185101 0.53076583 -0.34322152 0.35001895 0.4883629 0.016439572 0.48595482 0.14661577 -0.060167857 -0.14229417 -0.45043024 0.06617482 -0.27819046 0.138303 -0.5378986 0.4810088 -0.1142188 -0.10786356 0.24549782 0.2811558 0.37081128 -0.13687605 0.5195402 0.1646308 0.18566816 0.13550502 0.62501377 0.2948992 0.13402566 -0.34685108 -0.0023715042 -0.2825788
day -0.12684211 0.2981361 0.0037093915 -0.13641636 0.30269778 -0.8141754 0.45469442 0.9740254 -0.097839385 -0.40735516 -0.012798155 -0.3546347 -0.21151848 0.17484745 0.24971657 -0.0329628 0.03304341 -0.24131125 0.062158797 -0.6871383 0.13268588 0.25624004 0.48237568 -0.017914714 -0.18713056 -0.25908855 -0.3798823 -0.0077128084 0.08664522 -0.22377507 0.5038489 0.14008643 0.13940237 -0.2299387 -0.11106671 0.61929584 0.37557212 -0.35667711 -0.40626672 -0.75911003 0.40267932 -0.2669815 -0.2353373 -0.23719545 0.27414522 -0.13757417 -0.08709457 -0.033220973 -0.047362328 0.08834656 0.32761306 -0.24607278 -0.20175372 -0.025783256 -0.14450595 0.11248404 0.3443032 -0.044491474 -0.33295664 0.10625683 0.020794705 0.012564542 0.3653306 -0.2678352 -0.26227686 0.23886728 0.036231034 0.075582705 -0.5346859 0.46304324 -0.2855295 0.23289937 0.42487502 0.14794631 0.446189 0.008564195 -0.101575695 -0.13851088 -0.6038691 0.17490236 -0.057950046 0.2751959 -0.44129965 0.36269087 -0.06321261 -0.06906351 0.009238912 0.43450382 0.26148757 -0.00527155 0.4727218 0.04023359 0.14630319 0.039053384 0.6650522 0.19941029 0.1522843 -0.51746225 0.13189106 -0.50958085
like -0.028625032 0.1954888 0.17282896 0.054602843 0.041658986 -0.7612346 0.42940623 0.8409522 -0.22255181 -0.42043293 0.07967731 -0.46030548 0.024538606 0.16756196 0.12136504 -0.1702531 0.101011276 -0.48527408 -0.28151098 -0.9910918 0.1450231 0.13073663 0.38029668 -0.3633086 -0.12668683 -0.017028214 -0.25120485 -0.11990185 -0.2758573 -0.05252826 0.4153619 -0.12333027 0.16863708 -0.48759267 -0.055793982 0.3192173 0.24062064 -0.42932868 -0.1886871 -0.6379572 0.121696465 -0.34853005 -0.20184773 -0.08025022 0.46461585 -0.20179126 -0.33800122 0.07466784 0.27079606 0.28263134 0.07001484 -0.3359971 -0.020673804 0.008141879 -0.21729061 0.29346883 0.4077363 0.044333495 -0.18365681 0.3961117 0.20012632 0.02642925 0.16013321 0.017134437 -0.27547026 0.6453837 0.21089658 0.40484 -0.54113215 0.49337596 -0.37400752 0.33629417 0.43275723 -0.078898884 0.47877127 0.18814433 0.018604584 -0.14980899 -0.32847694 0.019260757 -0.37559628 0.12256246 -0.5511054 0.45871454 -0.22853872 -0.08263134 0.29642633 0.18608941 0.4089818 -0.16723686 0.4370564 0.14011529 0.14959693 0.23936813 0.52562976 0.30608487 0.13814674 -0.26051813 -0.05587267 -0.1863205
got -0.078282505 0.2040488 -0.00087374385 -0.014549085 0.2091293 -0.81381774 0.48276153 0.93131113 -0.12169838 -0.4119116 0.06270516 -0.41390762 -0.17759845 0.13681096 0.07743469 0.08503106 0.1415772 -0.34554172 -0.0059791068 -0.8216058 0.18701883 0.25855613 0.43328735 -0.21605508 -0.14064723 -0.18535112 -0.30172732 0.0038309013 -0.027443599 -0.19398679 0.5007167 0.06715991 0.29290506 -0.35329992 -0.25415072 0.500249 0.3676436 -0.3380506 -0.334097 -0.53960234 0.36943042 -0.25127348 -0.2859201 -0.1662218 0.39226985 -0.15923211 0.00028063552 -0.056520816 0.05048076 0.22769454 0.26349896 -0.30051157 -0.17776969 0.0037760958 -0.08371628 0.1357745 0.41692483 0.02858384 -0.29452717 0.15478656 0.059818618 0.033489525 0.28937334 -0.16322693 -0.286044 0.4761037 0.12987873 0.2952751 -0.5113675 0.50419337 -0.25477666 0.24146013 0.51006234 0.15369043 0.48954564 -0.04995799 -0.06416511 -0.2536857 -0.53506 0.21672545 -0.270719 0.13813166 -0.4287679 0.43734273 -0.058947004 -0.15775104 0.25136742 0.36704606 0.30030257 -0.02553844 0.4791465 0.19375922 0.15139024 0.18039547 0.73840004 0.26757696 0.15329711 -0.21012282 -0.035989337 -0.27430922
want -0.06478198 0.101138785 0.103555836 0.2879434 0.054491594 -0.65383947 0.54430085 0.680737 -0.16998267 -0.47670206 0.18885891 -0.45252192 -0.08212161 0.029663067 -0.28460437 0.22552733 0.32970452 -0.5295411 -0.21198598 -0.96534187 0.25895077 0.41406986 0.20369838 -0.60443693 0.027279917 0.036037434 -0.15300138 -0.026355756 -0.2828791 -0.11829214 0.45453307 -0.11919626 0.46799088 -0.58610696 -0.61442876 0.33263513 0.31434327 -0.12387588 -0.0938602 -0.174802 0.3860037 -0.299786 -0.33127087 -0.058217805 0.5788113 -0.21457727 0.19397838 -0.19205116 0.2850601 0.48469356 0.10812719 -0.40695912 -0.20139505 0.025789415 -0.050809383 0.08561347 0.47753653 0.17922458 -0.28100595 0.19836205 0.14173076 0.12657233 0.14001808 -0.092886716 -0.1984933 0.81443286 0.2312656 0.6108199 -0.3745099 0.6185591 -0.071323656 0.29232138 0.584601 0.16961165 0.48316845 -0.14458814 -0.038759857 -0.38094112 -0.20763989 0.20940524 -0.5761956 -0.13680254 -0.38206843 0.3542479 -0.032645613 -0.43001115 0.5990289 0.2554374 0.23127128 -0.07452264 0.3536671 0.4567458 0.12602167 0.27238503 0.58755517 0.266007 0.12046576 0.48331937 -0.31985268 0.2299967
cannot -0.05277479 0.19742297 0.09418603 0.015588681 0.12304814 -0.79839647 0.46550485 0.8627476 -0.17945339 -0.42780513 0.06303316 -0.4370987 -0.060293924 0.15727556 0.07413982 -0.008408397 0.18087332 -0.48891154 -0.151835 -1.0046076 0.22531965 0.29062396 0.43557194 -0.3523616 -0.088327065 -0.07028516 -0.3017493 -0.042574834 -0.2252326 -0.10400252 0.5777734 -0.042452462 0.33080637 -0.5200444 -0.28869906 0.4862192 0.34470347 -0.3193382 -0.27173463 -0.48532495 0.2713288 -0.27707478 -0.3015981 -0.11543 0.4350794 -0.1401753 -0.025132436 -0.017771488 0.17565951 0.30325243 0.19962797 -0.42929986 -0.13554558 0.008559341 -0.11739653 0.2051632 0.4309516 0.11677985 -0.26597098 0.22222725 0.13027604 0.06437694 0.18860638 -0.03628638 -0.256425 0.69026005 0.23474646 0.35889354 -0.5373859 0.62037987 -0.28122568 0.30471346 0.50005454 0.074191205 0.48780343 0.020615462 -0.023922443 -0.24301495 -0.42403525 0.20502864 -0.4296832 0.045924485 -0.54421216 0.4740127 -0.1299842 -0.18582581 0.37075642 0.3046596 0.36082134 -0.10480573 0.53011763 0.28179556 0.1519166 0.23435205 0.66217613 0.2555547 0.24022186 -0.080905594 -0.18377112 -0.16908835
still -0.089277565 0.23452906 0.10158293 0.025263403 0.14855519 -0.7581728 0.43326622 0.9057156 -0.19219832 -0.40697527 0.0046129646 -0.43490618 -0.09493551 0.18536443 0.17498024 -0.07806754 0.0791659 -0.36981758 -0.11121255 -0.81268245 0.15207581 0.2081806 0.4512151 -0.20313087 -0.14553161 -0.09875204 -0.33154136 -0.03826065 -0.116150215 -0.10864894 0.43307525 -0.0055700676 0.1592535 -0.36348695 -0.129346 0.45563295 0.33721834 -0.38014594 -0.29073498 -0.63333094 0.23282568 -0.27962378 -0.2824526 -0.15404403 0.42319015 -0.15854405 -0.18471853 0.0009665626 0.14110202 0.19043021 0.16459654 -0.321339 -0.102826685 -0.005916882 -0.12759656 0.19091398 0.37214297 0.009600326 -0.2910689 0.24144126 0.08958268 0.0364958 0.20904428 -0.1105115 -0.24103372 0.47575507 0.12762322 0.268155 -0.4970616 0.47772512 -0.30398664 0.2979484 0.4581623 0.03494533 0.44608667 0.09232826 -0.044063956 -0.17000934 -0.4614979 0.1128743 -0.26748732 0.13702725 -0.485163 0.43228754 -0.13323294 -0.112130634 0.20750754 0.28762725 0.34845623 -0.096121594 0.49383727 0.13889754 0.16826688 0.16643816 0.64418733 0.29186732 0.1329637 -0.32844526 0.0031576979 -0.29359213
back -0.084105626 0.16752404 0.022647126 0.058092985 0.2398047 -0.74450034 0.5319664 0.8958638 -0.12085882 -0.40705374 0.032760363 -0.39614418 -0.2360528 0.11096721 -0.015650542 0.1684544 0.13157958 -0.29894322 0.024197878 -0.6574637 0.23419656 0.32598796 0.4307991 -0.25163677 -0.1036534 -0.16894251 -0.28641114 0.045425393 -0.015094565 -0.21762803 0.47473547 0.024485344 0.3361808 -0.33269006 -0.38703105 0.55992514 0.4388028 -0.25034937 -0.33052507 -0.4895313 0.44541466 -0.26984692 -0.37458313 -0.17394531 0.4463768 -0.15074444 0.094604015 -0.13981888 0.052638274 0.23763613 0.24950083 -0.3036714 -0.24390426 -0.006922785 -0.047646448 0.06832867 0.429998 0.047824826 -0.36768097 0.086423695 0.008481413 0.078703426 0.24117531 -0.25890392 -0.18976942 0.47990417 0.09910412 0.29621467 -0.4511163 0.5234369 -0.20741667 0.2908383 0.5412341 0.18959561 0.4822687 -0.12588744 -0.09242803 -0.30255088 -0.5080215 0.2591024 -0.3093074 0.07268921 -0.35301515 0.39294302 -0.0049199327 -0.28026503 0.2859235 0.3671565 0.20593038 -0.021168938 0.3785485 0.2520148 0.1761264 0.11060478 0.7321453 0.24318178 0.119716614 -0.06005321 -0.07487253 -0.2085348
from -0.06653584 0.27752888 0.03206654 -0.09949618 0.2629449 -0.895411 0.46931288 1.0798333 -0.13396637 -0.43696064 -0.049947154 -0.42744586 -0.17385148 0.20219348 0.28251755 -0.020238059 0.03199689 -0.30457172 0.059029385 -0.80415756 0.18804635 0.19107665 0.56783473 -0.09470993 -0.22764811 -0.20252909 -0.47743908 0.012596298 0.014382094 -0.23974055 0.54820436 0.08765335 0.15879887 -0.2871229 -0.1008757 0.62247676 0.42467457 -0.42679086 -0.4774598 -0.7721558 0.35484338 -0.26887557 -0.30814904 -0.25384328 0.36376116 -0.17685068 -0.13317545 -0.025183937 -0.050644953 0.13035478 0.30907086 -0.31667593 -0.21894369 -0.04197036 -0.10845589 0.18205073 0.3910191 -0.030104334 -0.33033362 0.1424954 0.0295224 0.000875019 0.36196515 -0.17999274 -0.31038633 0.3602013 0.12714463 0.16916312 -0.5863775 0.51958203 -0.39715567 0.2961966 0.48486298 0.1243159 0.5449904 0.09389021 -0.10889855 -0.19507268 -0.66947275 0.23781215 -0.1746757 0.22671846 -0.4909084 0.5303652 -0.13676117 -0.074695975 0.10284716 0.40600067 0.3373478 -0.08083761 0.5561421 0.08889612 0.18219915 0.1414581 0.7686491 0.2809989 0.16523081 -0.5046613 0.07335868 -0.5260294
time -0.100548424 0.24420612 0.05398675 -0.03021658 0.22362144 -0.8093287 0.47684297 0.982635 -0.13300239 -0.42667973 -0.00318159 -0.38356233 -0.20564693 0.1684588 0.19843826 -0.033510964 0.048212953 -0.32022044 -0.013211247 -0.7329115 0.15281524 0.24800466 0.4785836 -0.1338107 -0.17204565 -0.18755573 -0.3536175 -0.019196821 0.00025027353 -0.1799773 0.44576937 0.054444816 0.19017246 -0.31028795 -0.16948408 0.5409772 0.3656363 -0.3746983 -0.37137157 -0.6604886 0.3599637 -0.291411 -0.28310266 -0.2082879 0.39948115 -0.15436102 -0.10056238 -0.028509466 0.03799995 0.16570151 0.25125983 -0.29350954 -0.18775626 -0.028847907 -0.12871388 0.14510451 0.3727476 -0.018007396 -0.30614907 0.15542099 0.049649496 0.03707536 0.29759315 -0.21841076 -0.23813511 0.39029318 0.09803471 0.2149906 -0.5159802 0.4883335 -0.28218347 0.26498365 0.46879667 0.09340438 0.46361193 0.028924137 -0.08378531 -0.17523812 -0.52632 0.16763635 -0.18145834 0.19085023 -0.4528202 0.4063053 -0.06069103 -0.13815075 0.14547893 0.38165408 0.29890677 -0.03363727 0.4637476 0.095545605 0.15241608 0.08630592 0.6924123 0.2680875 0.14680961 -0.38735393 0.03887394 -0.39395988
had -0.07017743 0.24131301 0.034890734 -0.05614744 0.1495343 -0.81376696 0.45874628 0.89517707 -0.15905897 -0.38947695 0.07853711 -0.38772938 -0.122579485 0.14160264 0.1396195 -0.056484822 0.10113569 -0.3821518 -0.106587246 -0.873956 0.16408865 0.21350475 0.4126583 -0.13483073 -0.15112302 -0.1728971 -0.2890487 -0.06059108 -0.049154133 -0.15943444 0.5073776 0.08528619 0.20273356 -0.35821342 -0.1375608 0.46404344 0.3385849 -0.3422647 -0.29451296 -0.6304566 0.31404114 -0.2637273 -0.20241416 -0.15828314 0.33451656 -0.15269887 -0.120619684 0.018820813 0.105207324 0.19666344 0.22437146 -0.3129795 -0.09846899 -0.026982488 -0.13757344 0.15356441 0.37604868 0.061238207 -0.23472655 0.21832395 0.12124848 0.017384404 0.3010242 -0.16913076 -0.29710147 0.4350806 0.17178743 0.24364522 -0.56184673 0.46981338 -0.31979066 0.2550164 0.43676668 0.091698825 0.4744478 0.059012346 -0.046152115 -0.14900774 -0.49135825 0.14547051 -0.1917283 0.16308163 -0.50432867 0.4180345 -0.1520446 -0.08338622 0.20522033 0.31732658 0.33953455 -0.028239798 0.49891067 0.1555708 0.15033926 0.18944272 0.68125135 0.23480733 0.20382807 -0.3069335 0.029265342 -0.3319337
really -0.0660243 0.20822485 0.20825909 0.1423624 0.018246911 -0.7230529 0.43676993 0.78046316 -0.2565932 -0.45135823 0.09717203 -0.4630344 -0.00851435 0.21812898 0.04793173 -0.07668615 0.13629761 -0.46777415 -0.32915238 -1.0193789 0.18600772 0.21860135 0.3497252 -0.39246407 -0.06252042 0.0036420263 -0.24065317 -0.075446546 -0.24573816 -0.01308546 0.3967119 -0.091050185 0.2510711 -0.5291504 -0.2169729 0.36587954 0.29342896 -0.31161666 -0.17448561 -0.5407114 0.16644779 -0.33641088 -0.24651733 -0.052514832 0.48063394 -0.22057968 -0.18759167 -0.0019211937 0.2787981 0.32091966 0.065028064 -0.3639033 -0.068939865 0.027948847 -0.15879233 0.2311842 0.41193068 0.08024201 -0.22819623 0.34609812 0.19287781 0.08434614 0.13789135 -0.025314918 -0.27048096 0.69002795 0.21259946 0.45844036 -0.46131 0.5523793 -0.27147582 0.31252816 0.45674503 -0.011882948 0.44668022 0.12585674 -0.007603119 -0.17614649 -0.28700894 0.036277045 -0.41007474 0.0407054 -0.5196858 0.4264631 -0.16387081 -0.14822772 0.35358742 0.19257587 0.37177068 -0.11980329 0.46640062 0.23954453 0.16531064 0.20678288 0.5796535 0.311444 0.13423426 -0.10019575 -0.11698501 -0.059015695
has -0.05552724 0.2665312 0.036548164 -0.08646314 0.19547287 -0.83965826 0.462095 1.0512874 -0.1660307 -0.42501464 -0.046632078 -0.43999538 -0.10975813 0.17196013 0.2630041 -0.12296315 0.0049634087 -0.33546114 -0.018342419 -0.7973803 0.17577103 0.18383598 0.51233816 -0.059962 -0.22293296 -0.15198426 -0.39184552 -0.049529076 -0.040228527 -0.17127673 0.46730995 0.0427118 0.100613356 -0.30370232 -0.00815232 0.53924304 0.32423243 -0.45499003 -0.37991694 -0.7921742 0.26420647 -0.29824173 -0.23656179 -0.19714522 0.38594815 -0.18219928 -0.26748645 0.0022585108 0.021225786 0.09755665 0.27825174 -0.31028974 -0.14776804 -0.084883526 -0.1342399 0.16810453 0.37853247 -0.053651117 -0.27876142 0.22437972 0.099001065 -0.026733145 0.29553676 -0.1521966 -0.3517568 0.3781108 0.13838522 0.19556554 -0.5871995 0.46055466 -0.42561308 0.268458 0.44683406 0.01542334 0.5040698 0.12829359 -0.03891495 -0.13609459 -0.5882575 0.18144296 -0.1922133 0.24553211 -0.51554143 0.48529935 -0.16908684 -0.05970957 0.06270718 0.35737535 0.32509315 -0.11377156 0.5268898 0.046642043 0.19810498 0.1450993 0.6987106 0.26375672 0.16738608 -0.50838 0.090470515 -0.46564507
about -0.09970397 0.26025015 0.1582631 0.039971147 0.11825112 -0.88585865 0.464928 0.99023277 -0.20635653 -0.45765173 0.015631558 -0.4996867 -0.08514243 0.24725512 0.23918083 -0.14770412 0.06374017 -0.40102717 -0.20143175 -0.92533696 0.11530278 0.20687005 0.4169222 -0.22632395 -0.14471889 -0.09099631 -0.35170528 -0.054751515 -0.18008901 -0.08731326 0.46292162 -0.0033941937 0.16998857 -0.41245925 -0.12873791 0.44764256 0.35110804 -0.41183668 -0.28225887 -0.6895377 0.2064526 -0.3246769 -0.24820665 -0.14105111 0.44332024 -0.18777606 -0.2696598 0.04357797 0.18837763 0.24698557 0.15508237 -0.35816342 -0.08985456 -0.01644017 -0.21100187 0.2656523 0.41757923 -0.003551831 -0.2287795 0.34526128 0.15993118 0.062324177 0.20583364 -0.10877186 -0.3232654 0.5392251 0.18929605 0.32005244 -0.5817032 0.5406532 -0.3652422 0.32117957 0.4728687 -0.010508651 0.5124956 0.19269328 -0.014729537 -0.13413948 -0.44545868 0.075742126 -0.26132154 0.1348221 -0.531771 0.50588775 -0.16810192 -0.048363745 0.21723662 0.28716514 0.40856332 -0.13695212 0.512927 0.15811263 0.20194836 0.20700245 0.62344337 0.3237466 0.1767862 -0.37792054 0.039510712 -0.30054525
did -0.08508137 0.16388138 0.22611362 0.15770115 -0.04110413 -0.7017931 0.3985324 0.84958017 -0.27031305 -0.42516074 0.06539353 -0.47320876 0.05536244 0.17670318 0.017116562 -0.13903743 0.116814055 -0.5634724 -0.34104517 -1.066147 0.17522824 0.1996046 0.32641423 -0.42459884 -0.08691999 0.034040827 -0.21337076 -0.14172928 -0.38665444 -0.005448266 0.41064918 -0.1448226 0.27140638 -0.6189597 -0.1709161 0.31412774 0.22188903 -0.41943142 -0.1588853 -0.5163233 0.16147028 -0.35959205 -0.26821855 -0.036313195 0.5382903 -0.18750304 -0.18339163 -0.0026923905 0.28959802 0.2823471 0.12088463 -0.43460968 -0.11182084 0.0005924644 -0.24019438 0.24867101 0.40201303 0.076155856 -0.23127595 0.35282132 0.19882368 0.08556547 0.07696061 0.06320561 -0.21103656 0.7331427 0.28307736 0.5349101 -0.49146312 0.5388524 -0.29927975 0.33523527 0.46767706 -0.08888738 0.53749144 0.14235874 0.008136059 -0.18160439 -0.2942881 0.066111244 -0.46065974 -0.010393907 -0.5243348 0.46998063 -0.22520567 -0.1220435 0.39656463 0.16953829 0.43278205 -0.151051 0.5363935 0.16312224 0.19790637 0.31218824 0.568334 0.37451187 0.23535305 -0.06412612 -0.15223965 -0.022702208
what -0.073669314 0.23808458 0.23047104 0.16339561 0.009347194 -0.76720494 0.4205447 0.851888 -0.27139947 -0.4636127 0.0855237 -0.5075587 0.026042538 0.20604314 0.11574866 -0.16858202 0.088522375 -0.43548098 -0.30887303 -0.9520009 0.11008349 0.16876625 0.32293528 -0.39994434 -0.12938073 0.058037095 -0.24461688 -0.10114006 -0.32654133 0.016337363 0.32896435 -0.15424885 0.17603606 -0.47980773 -0.1977366 0.28259045 0.24757615 -0.3335804 -0.18905699 -0.536916 0.1550515 -0.33922848 -0.21949284 -0.048044477 0.49838206 -0.22114117 -0.2684774 -0.016461335 0.31790835 0.28287974 0.02518355 -0.3959634 -0.01940869 -0.052929945 -0.1875955 0.24797373 0.4391383 0.096031025 -0.20630628 0.40903252 0.22375523 0.07302951 0.14639495 0.014727788 -0.25124487 0.67034674 0.20466438 0.45520985 -0.50477475 0.48771432 -0.30694562 0.29983658 0.49432924 -0.07938406 0.48865977 0.2222082 -0.008725723 -0.16296518 -0.26947293 -0.012069063 -0.37445274 0.04367775 -0.51551056 0.4403094 -0.1976126 -0.14321008 0.35974544 0.20081283 0.46978304 -0.11579276 0.45375383 0.22788967 0.16996364 0.21858406 0.5617567 0.3271487 0.18003558 -0.181798 -0.046382893 -0.10980798
quot 0.3705836 0.06319375 -0.18186836 -0.4222019 0.13817035 -0.6448759 0.38615075 1.0992708 0.17886686 -0.4279059 -0.34499857 -0.024840588 -0.032681428 -0.22258636 0.56925535 -0.096488245 -0.2084514 -0.20994943 0.2731616 -0.6447126 0.37681666 -0.10782866 0.47706485 -0.0012859633 -0.6304381 0.25623494 -0.8522431 -0.18739806 -0.31247398 -0.06295495 0.45383212 -0.37930396 -0.47022325 -0.33443904 0.44346002 0.6840886 0.1147261 -0.65579623 -0.6923575 -0.7224463 -0.15841937 -0.15165992 -0.36073953 -0.5050198 0.73199147 -0.33062872 -0.8880721 -0.37402987 0.0276145 -0.22964573 0.43049878 -0.19242908 0.081422925 -0.44150347 0.06003408 -0.025129508 0.66719395 -0.17599416 -0.17074451 0.43979582 0.07693399 -0.30767587 0.32859367 -0.36541894 -0.44281897 0.14582208 0.45201993 -0.23575161 -0.6817587 -0.022287784 -0.8179266 0.30455065 0.18663336 -0.3668538 0.6716403 0.3946737 0.05115495 0.22619452 -1.0206993 0.44317448 -0.6499788 0.6254344 -0.38903385 0.8751867 -0.63931143 0.07568296 -0.1942767 0.5010675 0.2833695 -0.55096847 0.84450424 0.20138457 0.17893781 -0.067380935 0.9447557 0.2786633 -0.04647121 -0.99419665 0.08395822 -0.48123157
good -0.112924516 0.26811305 0.14466909 -0.010219493 0.104142666 -0.7690123 0.4264709 0.8717732 -0.20095223 -0.4372442 0.046069667 -0.43787447 -0.07512146 0.18364875 0.17001651 -0.14625654 0.052211903 -0.38521484 -0.18145064 -0.87672657 0.14729063 0.16113985 0.40254337 -0.15908523 -0.14283831 -0.10265524 -0.26931638 -0.059624255 -0.10097172 -0.1035187 0.40658337 -0.000565367 0.13626352 -0.35274598 -0.069455534 0.437165 0.34332868 -0.39852798 -0.28059348 -0.68085325 0.23688246 -0.32871968 -0.22496213 -0.13310659 0.40455922 -0.19267355 -0.25921625 0.0036374992 0.19470038 0.18944019 0.14147432 -0.36724326 -0.07937239 -0.036761303 -0.18988536 0.21704285 0.32991257 -0.009321627 -0.27757838 0.2645594 0.12591323 0.029841853 0.23111993 -0.11522801 -0.26802433 0.5301721 0.18244009 0.29427463 -0.5353938 0.4787287 -0.34442222 0.30977246 0.43268406 -0.0034085554 0.46271825 0.16918422 -0.027280837 -0.1289344 -0.45295897 0.087038316 -0.20273846 0.13106284 -0.51723415 0.45745718 -0.15179287 -0.06612529 0.21899071 0.25694618 0.34774572 -0.097249754 0.48234054 0.11595525 0.13765474 0.13755985 0.6331605 0.28144416 0.15249057 -0.3667575 0.029340198 -0.263387
they -0.102673784 0.22915648 0.25164312 0.18884371 0.087836765 -0.8180398 0.44774565 1.0080197 -0.30019388 -0.47827587 0.06124167 -0.5409875 -0.015560917 0.28885916 0.18793212 -0.23102655 0.023347177 -0.39301285 -0.29965195 -0.89912474 0.03650719 0.14129364 0.39454424 -0.3844565 -0.15549858 -0.0031136859 -0.32172158 -0.044058852 -0.32462966 -0.021793168 0.27210405 -0.18853654 0.110501036 -0.43270507 -0.16671625 0.33311248 0.3098602 -0.4395454 -0.25098124 -0.6335434 0.16421 -0.39302626 -0.281608 -0.05461376 0.56168514 -0.16880251 -0.3544329 0.024743998 0.26403853 0.24126522 0.082967125 -0.4199232 -0.053797048 -0.07167887 -0.2581613 0.32344908 0.44830903 0.097763956 -0.24861477 0.4097795 0.17046762 0.068071954 0.13626656 0.012184626 -0.22761516 0.56282604 0.12537862 0.47731707 -0.50701827 0.45294753 -0.33412716 0.33330917 0.51546735 -0.0919919 0.52368283 0.22468507 -0.072291166 -0.16370778 -0.32597476 -0.039326016 -0.34209076 0.049533993 -0.5241444 0.5472149 -0.15876718 -0.057403848 0.30778107 0.18602239 0.5334667 -0.10328153 0.51843846 0.18240502 0.26044166 0.26583502 0.6346351 0.43318525 0.21487004 -0.32863384 0.026458189 -0.23534927
one -0.07939251 0.22278796 0.07986232 -0.029703684 0.1902658 -0.68674135 0.40429348 0.8333253 -0.14959498 -0.35808927 -0.0057530743 -0.36640736 -0.14167555 0.13085282 0.21613128 -0.088905394 0.029482301 -0.30831736 -0.062681094 -0.7394417 0.11164393 0.17894883 0.42741033 -0.09499541 -0.16725583 -0.16483594 -0.32002407 -0.03931663 -0.062098652 -0.16726318 0.39768726 0.021234138 0.14662516 -0.28758535 -0.10025672 0.4449262 0.31324548 -0.36740074 -0.32048675 -0.61910397 0.27730462 -0.28382027 -0.21230458 -0.17026505 0.3502816 -0.13347618 -0.18063399 0.001687134 0.050323788 0.15992525 0.18684964 -0.27037066 -0.12326842 -0.04354711 -0.12508896 0.12680343 0.3393929 0.022790274 -0.2634259 0.19917849 0.058043342 0.029450096 0.25790286 -0.1638221 -0.26992658 0.32040665 0.1408041 0.20226592 -0.489046 0.41238618 -0.29187253 0.25476536 0.38750353 0.025198296 0.4334058 0.06427772 -0.06892239 -0.11086708 -0.4607399 0.10673811 -0.1587617 0.17384146 -0.43061194 0.40836236 -0.12313116 -0.04713363 0.111464225 0.30257443 0.3243024 -0.072551176 0.42939168 0.07700028 0.18294662 0.14660539 0.61531323 0.27964458 0.15582123 -0.41443777 0.062178798 -0.3864201
its -0.108971454 0.25375795 0.1427632 0.03398044 0.12601571 -0.8822343 0.47181773 1.0222595 -0.19971119 -0.44438374 0.033012547 -0.49126405 -0.093298405 0.24275963 0.1935318 -0.10227472 0.041731063 -0.40954196 -0.12712567 -0.9202827 0.16932665 0.24517861 0.45354134 -0.18662278 -0.16877389 -0.098445535 -0.32335475 -0.04039229 -0.13543552 -0.08671924 0.46266174 0.015570844 0.17882353 -0.367005 -0.1222196 0.49751052 0.33519992 -0.41848326 -0.3132628 -0.7129523 0.2514763 -0.34376943 -0.27232507 -0.1261686 0.47020832 -0.18429717 -0.23082906 0.022940872 0.14175045 0.19045126 0.20870708 -0.3437584 -0.12093087 -0.04278098 -0.16578455 0.22067754 0.40458292 -0.024804106 -0.29021403 0.2775358 0.13467553 0.044179972 0.23350292 -0.12178058 -0.29801226 0.5240838 0.14952931 0.33704555 -0.562399 0.5336071 -0.368629 0.2955082 0.4643845 0.018804517 0.5055822 0.13608067 -0.052622538 -0.14629117 -0.48273668 0.0892624 -0.2415581 0.14166258 -0.52112925 0.49262142 -0.114066996 -0.074461736 0.21430801 0.30697146 0.37391755 -0.11457608 0.5333909 0.121141 0.18760835 0.18175596 0.6678869 0.325677 0.17920321 -0.35267928 0.003487111 -0.29934907
sad -0.078077905 0.24499936 0.1665614 0.02764123 0.039676357 -0.7404031 0.40749878 0.80245227 -0.20327206 -0.3786697 0.0030052748 -0.43410626 -0.040105745 0.21305916 0.19584434 -0.16072248 0.07153509 -0.3873818 -0.21724729 -0.8872918 0.1514071 0.19370778 0.39239198 -0.22288321 -0.10266548 -0.054759026 -0.30874652 -0.06799368 -0.16146234 -0.026228977 0.40901142 0.032474965 0.15070985 -0.37713134 -0.07637594 0.39664033 0.30414227 -0.3357344 -0.24545784 -0.5653535 0.14329322 -0.31214947 -0.21607 -0.07735301 0.39345124 -0.181672 -0.23035567 0.057751015 0.21275465 0.22797473 0.107795216 -0.3290203 -0.04715386 -0.007715489 -0.19239897 0.24114923 0.32208863 -0.0098194955 -0.21431813 0.31013843 0.15405107 0.04070643 0.21077535 -0.047568336 -0.26052287 0.51064265 0.16448829 0.3070224 -0.51079047 0.5145675 -0.31788343 0.27747595 0.38740748 -0.0033224695 0.38931757 0.19434644 -0.0030061596 -0.11996056 -0.38215944 0.054627903 -0.22175488 0.08129306 -0.4844986 0.41296956 -0.13284114 -0.06596494 0.23591049 0.24171042 0.35917628 -0.085540034 0.47544426 0.13589562 0.1715135 0.14463387 0.53735703 0.26130795 0.17015001 -0.3090628 0.007422659 -0.23680995
sleep -0.07671216 0.16384391 0.04617686 0.14123887 0.15644597 -0.71121943 0.51438373 0.79292333 -0.16414927 -0.38363922 0.06488809 -0.37002215 -0.23956664 0.13497582 -0.10426918 0.17551781 0.13308692 -0.3292353 -0.084389545 -0.76880795 0.24531798 0.36639997 0.36000964 -0.2765229 -0.046765883 -0.14054224 -0.20227297 0.050729133 -0.015485142 -0.14866626 0.4511802 0.016104525 0.3696877 -0.3457501 -0.42181697 0.44139206 0.4529768 -0.19406195 -0.23051539 -0.4499158 0.41297606 -0.22587208 -0.340953 -0.0958219 0.45816466 -0.12977825 0.061253108 -0.06896095 0.115616746 0.32344484 0.1583422 -0.26981774 -0.15528192 -0.021902015 -0.055260397 0.037539583 0.40434217 0.050490495 -0.35335138 0.14686966 0.03679602 0.15023978 0.15685314 -0.2859299 -0.19441432 0.5013952 0.18609062 0.39378595 -0.45730212 0.4989023 -0.18407066 0.3175826 0.50006294 0.167695 0.4266548 -0.123263344 -0.058509637 -0.28043553 -0.42326406 0.15903096 -0.33485705 -0.002242122 -0.3634502 0.34531608 0.003691111 -0.29468843 0.33548194 0.26602313 0.1786609 -0.05158899 0.34427834 0.30045763 0.18979254 0.15800019 0.7123996 0.25654483 0.14959262 0.0372839 -0.1303545 -0.054478224
know -0.068078026 0.18024513 0.2994776 0.25612828 -0.13921078 -0.62340695 0.37029418 0.6314892 -0.33526996 -0.47287536 0.18520106 -0.5382997 0.15361962 0.16073513 -0.060274497 -0.17441481 0.21371248 -0.6243084 -0.49619582 -1.1974335 0.11352166 0.19064663 0.21657053 -0.63273484 -0.039252818 0.14696963 -0.111437425 -0.17625642 -0.52949584 0.10245308 0.31928408 -0.24430637 0.2839951 -0.6638028 -0.2921352 0.08777658 0.13020098 -0.27337524 -0.006109385 -0.33799234 0.064189084 -0.36517408 -0.17613317 0.0693061 0.54746884 -0.21144421 -0.22676311 0.003822536 0.46032345 0.42894286 -0.08212768 -0.41607112 0.000783084 0.03885277 -0.22385314 0.29321072 0.42452306 0.17683788 -0.14749306 0.46907696 0.31401578 0.103745304 0.00917981 0.17944483 -0.20048606 0.84790635 0.3051067 0.6564772 -0.44452667 0.530473 -0.22656724 0.3057699 0.47163662 -0.08705916 0.4266377 0.20464554 0.041293047 -0.19792135 -0.0807701 -0.048484504 -0.5300749 -0.11344858 -0.52789605 0.41707063 -0.21543026 -0.19976808 0.5679788 0.10916614 0.5008201 -0.14701182 0.42900914 0.27539715 0.13407487 0.37214318 0.41237113 0.3689478 0.22320947 0.1343758 -0.2228079 0.16297501
im -0.11430266 0.27280298 0.104002185 0.053839006 0.13972619 -0.8997013 0.50986964 1.0250301 -0.22363071 -0.46433055 0.0023633358 -0.5067248 -0.12186567 0.25329885 0.18646114 -0.07617952 0.08427836 -0.3699542 -0.12039077 -0.87433916 0.16844092 0.23924366 0.43168932 -0.21632361 -0.13756339 -0.10462509 -0.37908202 -0.039258495 -0.117785975 -0.084265396 0.47869584 0.0461712 0.16612673 -0.4022556 -0.15860099 0.5213591 0.35568622 -0.4021769 -0.32247698 -0.6781055 0.25287026 -0.33394924 -0.28715196 -0.13170783 0.4609167 -0.19586845 -0.16915704 -0.009741894 0.13070455 0.2474802 0.22635418 -0.36187714 -0.122721635 -0.044030298 -0.17282905 0.21395682 0.415469 -0.029776443 -0.31569326 0.2868764 0.13520688 0.040172577 0.23745652 -0.1607674 -0.3071041 0.550779 0.14354962 0.3412427 -0.5436971 0.55779505 -0.3547341 0.28983846 0.4675138 0.02846311 0.51452094 0.118314646 -0.05346135 -0.16181664 -0.5056045 0.12004107 -0.2858982 0.1427847 -0.50981194 0.48447686 -0.10807499 -0.11009821 0.23402293 0.31631353 0.38076663 -0.12608683 0.54358274 0.14119737 0.20509367 0.16017827 0.6911777 0.30627963 0.18383984 -0.35116702 0.0100735 -0.28490192
why -0.059783675 0.195665 0.24842462 0.19258209 -0.006538586 -0.7183939 0.41629824 0.830689 -0.27153298 -0.4615752 0.073769845 -0.51219004 0.041863136 0.21715772 0.089337915 -0.14787441 0.086832866 -0.4908092 -0.3298807 -0.9844928 0.117218465 0.18347003 0.33821395 -0.41317728 -0.101417944 0.09707893 -0.27158344 -0.073061265 -0.35981196 0.008409346 0.31670538 -0.16308147 0.18649907 -0.49964508 -0.19963625 0.31911564 0.25710496 -0.38323158 -0.1904403 -0.53711563 0.11677383 -0.333927 -0.25121284 -0.045116723 0.53626835 -0.2308457 -0.28484124 -0.0062534227 0.33779743 0.30395705 0.01106259 -0.3772647 -0.038420264 -0.0389095 -0.18321076 0.2514885 0.41191763 0.078739464 -0.21438345 0.3782578 0.22462411 0.066986874 0.12857398 0.043167174 -0.25525936 0.6694997 0.22770579 0.4939476 -0.49492836 0.5202077 -0.2856469 0.3279872 0.48145628 -0.06338061 0.48000503 0.21978115 -0.012778308 -0.18242803 -0.28201887 0.011719663 -0.42602587 0.030860325 -0.50696033 0.45803097 -0.1865653 -0.15470296 0.3908208 0.19679756 0.44703695 -0.15918602 0.47781384 0.23486325 0.19199294 0.2678454 0.5502794 0.36956936 0.17729819 -0.15303017 -0.10629746 -0.081311904
<url> -0.106608145 0.27849293 0.11157791 0.0005124222 0.15476632 -0.89078474 0.48450118 1.0599577 -0.2164549 -0.47466522 0.007064738 -0.5033399 -0.08732388 0.21846521 0.23690368 -0.13505034 0.04921631 -0.41580397 -0.12561679 -0.9401612 0.14170948 0.20184137 0.48785704 -0.20028503 -0.18968558 -0.096654154 -0.38718304 -0.050110888 -0.13211532 -0.12195402 0.46220657 -0.0054434724 0.126887 -0.3954804 -0.10207052 0.5332106 0.35637605 -0.47103614 -0.35447043 -0.7642648 0.2550951 -0.34577414 -0.3054145 -0.18859395 0.50510335 -0.20850699 -0.26679322 0.0003912826 0.12162954 0.20292597 0.19966476 -0.37068987 -0.12613514 -0.033663213 -0.17015502 0.23318143 0.4311919 -0.0050719962 -0.30440068 0.30933943 0.1348667 0.027365103 0.27494198 -0.13954939 -0.33649656 0.52292776 0.17179044 0.31891784 -0.5931233 0.5368505 -0.39821556 0.3435005 0.48621225 -0.007590552 0.52806956 0.17710151 -0.061783914 -0.1651272 -0.51827013 0.121982634 -0.27834594 0.1608081 -0.5523934 0.54508406 -0.15102755 -0.09280344 0.19483502 0.34305 0.4149394 -0.1188206 0.5367124 0.1300452 0.23645137 0.18457264 0.7277348 0.34006444 0.19268705 -0.44106495 0.0466871 -0.36192966
need -0.05885752 0.17622934 0.05322543 0.078663036 0.12855296 -0.7750883 0.50547993 0.8049205 -0.16790317 -0.43049204 0.112450145 -0.4469183 -0.11299175 0.10190201 -0.03633252 0.08641608 0.21687551 -0.45835304 -0.13582985 -0.94360185 0.21230975 0.3246966 0.32209128 -0.35610932 -0.08821017 -0.05864948 -0.23322237 -0.029789682 -0.14672762 -0.14400381 0.5366033 -0.033523966 0.33526322 -0.4776031 -0.35536075 0.43935397 0.3460342 -0.23995316 -0.23217379 -0.4377524 0.35132417 -0.31157917 -0.28002405 -0.10594686 0.45908123 -0.18079397 0.011500018 -0.06321821 0.17260934 0.3452496 0.198138 -0.3696541 -0.13440806 0.016326288 -0.118675806 0.14775285 0.4499815 0.112632915 -0.29812875 0.20355356 0.10601319 0.07439184 0.21261641 -0.11876724 -0.25327507 0.6642619 0.21769822 0.40734896 -0.49854335 0.5860779 -0.2354054 0.27963033 0.52008134 0.1136292 0.48367628 -0.037209388 -0.033021286 -0.2419628 -0.37459648 0.21604544 -0.41525075 0.02185101 -0.4766728 0.4080293 -0.095090896 -0.2519309 0.388465 0.32853338 0.31600666 -0.047452755 0.43847936 0.31921405 0.13119312 0.20097935 0.6418753 0.24267817 0.17241663 0.022800846 -0.1243364 -0.059646025
some -0.11407231 0.2189156 0.12249325 0.067189686 0.19055049 -0.8551669 0.5244826 0.9943503 -0.20302153 -0.45789787 0.036294285 -0.47794926 -0.17437658 0.1830953 0.10885609 -0.018198987 0.09307015 -0.36251754 -0.10646286 -0.84231377 0.1823585 0.27740675 0.43894154 -0.27314028 -0.15322603 -0.114355214 -0.3044093 0.028428247 -0.12038496 -0.1362176 0.45863616 -0.05824201 0.23664099 -0.4024265 -0.2959938 0.5081238 0.4258351 -0.348644 -0.3259419 -0.5932887 0.35689023 -0.35202706 -0.3514255 -0.15351684 0.5121459 -0.17770852 -0.08335811 -0.041914914 0.12374914 0.2629013 0.22751197 -0.3860772 -0.14245956 -0.057873208 -0.14514428 0.20142116 0.44882062 0.03581498 -0.34098944 0.20701754 0.0672591 0.09326808 0.21919598 -0.1850096 -0.23608507 0.5557657 0.15182824 0.37208667 -0.5373427 0.5372225 -0.27922606 0.32243186 0.55710155 0.074934036 0.5259318 0.053177636 -0.1123603 -0.22362444 -0.48495314 0.15404648 -0.328098 0.08209198 -0.4962605 0.48912725 -0.07899946 -0.18219303 0.26340812 0.32799143 0.37393886 -0.048780546 0.48443103 0.23069867 0.21803986 0.14804581 0.7443847 0.3182795 0.17300734 -0.26589146 -0.023575906 -0.25208607
we -0.10890395 0.22160394 0.19443682 0.13548255 0.11937299 -0.81030774 0.453112 0.9766866 -0.25276744 -0.44083264 0.034914654 -0.48195067 -0.08388058 0.25626898 0.16350089 -0.15141656 0.013156482 -0.35388973 -0.22668096 -0.8148038 0.06203146 0.1997188 0.37193832 -0.2826815 -0.13922617 -0.047405798 -0.30377746 0.0077083968 -0.23417397 -0.06360655 0.28115112 -0.12607652 0.12192465 -0.37867153 -0.19237003 0.376743 0.345751 -0.40930882 -0.27008662 -0.6265911 0.21274357 -0.37392095 -0.29050282 -0.0878355 0.5381525 -0.1564013 -0.27361387 0.008401313 0.193116 0.22720805 0.09584151 -0.3823647 -0.08168967 -0.065428525 -0.21105614 0.260432 0.44192043 0.06685629 -0.2691725 0.34455496 0.11750135 0.05683389 0.16130391 -0.0928794 -0.2285644 0.5270268 0.13636944 0.4207335 -0.5066661 0.4671968 -0.30197814 0.33556372 0.51622003 -0.022849428 0.5092969 0.17478274 -0.093171656 -0.14753132 -0.3513451 -0.0022776464 -0.2854747 0.08466446 -0.4647171 0.5175913 -0.10178159 -0.095263496 0.270365 0.22767377 0.44701293 -0.084546275 0.46959007 0.19148614 0.23147249 0.19178075 0.6343388 0.39470735 0.18866777 -0.33748427 0.036943253 -0.22737187
night -0.09335717 0.32847616 0.03887627 -0.033130452 0.35085505 -0.8471234 0.46697932 1.0410346 -0.17040205 -0.344885 -0.036818128 -0.3102548 -0.32697722 0.20287551 0.3106773 -0.06210393 0.005150221 -0.21947879 0.092162825 -0.7975921 0.09096611 0.35491583 0.42114896 -7.432261e-05 -0.12251099 -0.34295055 -0.45188206 -0.087868795 0.09589784 -0.15893298 0.4286518 0.1784131 0.26617151 -0.25357965 -0.0869806 0.6203533 0.34724814 -0.4207087 -0.3244316 -0.7341154 0.4545029 -0.22396839 -0.19940257 -0.21066812 0.2837138 -0.07296287 -0.1356165 0.08733407 -0.0247149 0.11433356 0.32072267 -0.15459676 -0.22458272 0.0010560903 -0.08231163 0.098590195 0.34111026 0.048100825 -0.24829109 0.09285535 0.007291193 0.12908907 0.3682069 -0.3438664 -0.28627953 0.22091693 0.08594214 0.111061394 -0.63229954 0.4871177 -0.23999737 0.26798964 0.43106258 0.14371282 0.514213 -0.039259937 -0.041654266 -0.17401312 -0.67721146 0.060098622 -0.06392291 0.3086631 -0.45305297 0.3129866 -0.061454747 -0.08350707 -0.007884014 0.4683313 0.33216128 0.007048028 0.48680365 0.043367825 0.07090383 0.11561695 0.7818423 0.26017037 0.22688414 -0.5607275 0.12588254 -0.59723514
home -0.121031806 0.21698575 0.022941226 -0.019810569 0.25775608 -0.75417906 0.48028186 0.9297986 -0.1225409 -0.3793608 -0.007425102 -0.38798264 -0.23239842 0.15371157 0.13082612 0.069878004 0.084358156 -0.2642541 0.052903462 -0.6524594 0.18908772 0.2703515 0.50844145 -0.14590621 -0.17307737 -0.19577777 -0.32230425 0.046898227 0.030146921 -0.15977801 0.47384173 0.06302849 0.22423904 -0.23960339 -0.22858466 0.5614485 0.40542382 -0.32467398 -0.34485924 -0.59848684 0.37423843 -0.24630213 -0.32693142 -0.18605155 0.39157602 -0.10150958 -0.0068528806 -0.10358079 0.03135374 0.13061476 0.26461118 -0.25709715 -0.2109503 -3.8124588e-05 -0.114469975 0.11990288 0.37815505 -0.009067446 -0.34142333 0.10546762 0.012689668 0.056559302 0.26249158 -0.20405836 -0.22806664 0.37691352 0.039664883 0.21106967 -0.4495286 0.47323105 -0.2640674 0.23124081 0.45381755 0.17687024 0.42559755 -0.043963097 -0.108222775 -0.23637128 -0.57403696 0.21407863 -0.17532595 0.15160215 -0.35979208 0.42603377 -0.011537291 -0.1588583 0.17271179 0.36215213 0.22972415 -0.027534029 0.44726455 0.12662908 0.17181328 0.05804699 0.7300689 0.24278823 0.13802421 -0.338595 0.03211906 -0.35331017
more -0.101035275 0.24565418 0.10515441 -0.0118386885 0.17937239 -0.7847124 0.44416925 0.9302693 -0.17639731 -0.42456552 0.026735663 -0.4311527 -0.1305078 0.19844653 0.16987455 -0.10451751 0.07675931 -0.36447784 -0.10420875 -0.8766552 0.16734558 0.21141283 0.4367917 -0.17472109 -0.13607109 -0.13589413 -0.30657586 -0.025662346 -0.12412179 -0.12998518 0.4323953 0.0072043994 0.16669501 -0.3829659 -0.15144832 0.48776048 0.37946987 -0.4191011 -0.32452318 -0.6682651 0.2623957 -0.31100082 -0.26979974 -0.1643828 0.44823897 -0.15573478 -0.18241885 0.03760253 0.14011341 0.22694948 0.19531326 -0.3330614 -0.115125306 -0.02154186 -0.15372151 0.19036327 0.41306537 0.00596859 -0.27896923 0.2453749 0.10809378 0.05601447 0.24683161 -0.1600186 -0.3015911 0.49735233 0.15595023 0.29521027 -0.56959087 0.5075075 -0.36054716 0.3156339 0.4572447 0.028850239 0.47203004 0.11493455 -0.08117288 -0.15067297 -0.5008174 0.12149494 -0.25427935 0.15754864 -0.5354832 0.48304278 -0.11607678 -0.08201464 0.22221428 0.28830218 0.39375624 -0.06679715 0.50215113 0.16146891 0.19694895 0.19356199 0.7044071 0.32348946 0.1776494 -0.39302754 0.027002579 -0.34322932
last -0.14802866 0.32580054 0.004404448 -0.1627953 0.21418148 -0.89732814 0.47340328 0.90325695 -0.17116453 -0.38421226 0.028810622 -0.348367 -0.23050706 0.0847736 0.34884405 -0.13132761 0.01007588 -0.23559645 0.02508157 -0.76418465 0.18976222 0.2411625 0.66115606 0.109009534 -0.21411796 -0.2875532 -0.35909554 -0.08282376 0.18915015 -0.21695438 0.58520603 0.17459375 0.12810342 -0.19641729 -0.13406466 0.7000615 0.4803583 -0.37951684 -0.46225944 -0.8391424 0.48141685 -0.16048442 -0.2524459 -0.33382967 0.2387863 -0.10990695 -0.24147119 -0.01075553 0.08445132 -0.004366757 0.28588897 -0.36307016 -0.19492738 -0.07332499 -0.25079262 0.12379096 0.28284246 -0.12872773 -0.32961228 0.15630414 0.14067763 0.10514934 0.3061774 -0.32906824 -0.2139141 0.3818485 0.1866112 0.11972792 -0.65482473 0.41309917 -0.42843768 0.337001 0.39663976 0.24516536 0.42098296 0.1316829 -0.1277722 -0.058134425 -0.7322444 0.1405856 0.021158107 0.10894484 -0.5533673 0.536673 -0.17592455 -0.007929 0.15947674 0.3249918 0.30686387 -0.008112825 0.5801512 0.12373316 0.08104936 0.050302275 0.8334399 0.15929158 0.27993467 -0.56738424 0.04919765 -0.56915575
when -0.053747624 0.17016652 0.13989608 0.053463235 0.09390555 -0.72863615 0.41064388 0.80253434 -0.17604555 -0.38625854 0.045910474 -0.42056376 -0.045655604 0.16528124 0.10161293 -0.078703046 0.101551965 -0.4337795 -0.20803297 -0.90953743 0.15020572 0.21095026 0.3813091 -0.3116842 -0.1100506 -0.012020435 -0.3044946 -0.06012747 -0.22457816 -0.070525266 0.43659145 -0.08242669 0.18553987 -0.45927712 -0.20145738 0.39602208 0.28683063 -0.33468783 -0.24772283 -0.518391 0.1747538 -0.30028662 -0.25370693 -0.10511466 0.4476835 -0.1890676 -0.17866002 -0.035564456 0.20925237 0.26660597 0.12496261 -0.33896458 -0.08499151 0.014840371 -0.14054479 0.22597373 0.41334885 0.068718635 -0.22420055 0.28652483 0.115787 0.029489344 0.18778 -0.059747647 -0.25936028 0.57364064 0.18535309 0.32812732 -0.46238515 0.49714446 -0.313865 0.303807 0.43156025 0.013805522 0.46553347 0.13893576 -0.030124707 -0.16987148 -0.38382307 0.0914991 -0.33429098 0.06912668 -0.47109935 0.4441038 -0.16423808 -0.12203474 0.28314748 0.2656846 0.37260303 -0.1040338 0.46787003 0.21018723 0.166117 0.18516956 0.60514927 0.2941599 0.17857832 -0.18612473 -0.076184504 -0.19096366
miss -0.05255534 0.208203 0.10775507 0.006750166 0.054327555 -0.7027568 0.3745217 0.72816557 -0.16905938 -0.36029392 0.038031373 -0.40436754 0.007988035 0.13729939 0.11543816 -0.09980385 0.13844337 -0.44969577 -0.18231845 -0.9444472 0.1494461 0.15666205 0.3349737 -0.3268807 -0.09843841 -0.0055215424 -0.3039328 -0.08834115 -0.20324622 -0.06520718 0.4682968 -0.029414937 0.13352399 -0.43040845 -0.1510986 0.33511 0.23535573 -0.31876397 -0.1811318 -0.5030066 0.124954164 -0.27043512 -0.18716218 -0.08739434 0.38509655 -0.17506284 -0.15658987 -0.016868562 0.16618487 0.26049715 0.12585253 -0.30809146 -0.06360256 0.016514624 -0.14236787 0.21789715 0.36524403 0.09176377 -0.21487568 0.3075525 0.16447476 0.007415519 0.1876673 -0.041091748 -0.26961267 0.5732766 0.22173893 0.31643525 -0.45817295 0.48301247 -0.2947854 0.25405625 0.37594444 0.020675035 0.4224131 0.14352986 -0.006465338 -0.14537212 -0.34730434 0.10772966 -0.33083236 0.04444366 -0.48169965 0.41388497 -0.1517659 -0.08302076 0.30263537 0.24481237 0.40503198 -0.15466133 0.48256314 0.19938076 0.1575246 0.19521661 0.5300678 0.22753023 0.23401366 -0.17633373 -0.06591195 -0.15422106
your -0.109615736 0.2822573 0.20955627 0.093557216 0.049804974 -0.870449 0.43804342 0.9920582 -0.25933284 -0.45098534 0.022584477 -0.534885 -0.020359261 0.2795789 0.22543176 -0.22060983 0.055245064 -0.43753907 -0.28651425 -1.0034306 0.098174386 0.17248374 0.38397315 -0.29602182 -0.15026794 -0.018975468 -0.3143835 -0.08359327 -0.27556655 -0.010195766 0.3795933 -0.110765316 0.111328065 -0.4783068 -0.12539066 0.38164192 0.30684513 -0.43263292 -0.23638882 -0.65202975 0.12589873 -0.35963187 -0.27039132 -0.101556495 0.5237691 -0.209445 -0.3400256 0.024070334 0.2777678 0.28092146 0.09911946 -0.39981997 -0.05661813 -0.05248961 -0.228172 0.31092966 0.4748642 0.016639559 -0.22587526 0.39843658 0.18631725 0.07673175 0.16681433 -0.057792857 -0.3390712 0.62954015 0.2087786 0.4292793 -0.5657064 0.54865044 -0.37249228 0.32427186 0.46954307 -0.0810133 0.5271402 0.2593051 -0.009823729 -0.11520524 -0.4097493 0.03713768 -0.3394695 0.06416448 -0.55947936 0.5478526 -0.18983148 -0.07158383 0.29253957 0.2605683 0.50033975 -0.16848412 0.51356715 0.19380549 0.22528301 0.23029527 0.6498095 0.38339588 0.215346 -0.35576713 0.007051842 -0.19981751
morning -0.07967122 0.2943847 0.04082659 -0.048396215 0.17830122 -0.8185688 0.48745415 0.9598855 -0.15058586 -0.42591769 0.031001985 -0.38832483 -0.13325863 0.18574673 0.23562488 -0.040968314 0.05667265 -0.3507791 -0.06612996 -0.82747114 0.12526406 0.20455283 0.42752203 -0.098380245 -0.17723092 -0.12827201 -0.3372202 -0.07198372 -0.014668339 -0.11180061 0.498906 0.0697143 0.15972058 -0.3467858 -0.09859289 0.49135253 0.34279618 -0.3644407 -0.31847128 -0.6809182 0.2871281 -0.28660825 -0.22077008 -0.1915779 0.33677036 -0.16284332 -0.15267785 -0.0054858485 0.049738985 0.16992265 0.1830221 -0.24659932 -0.13105117 0.029814623 -0.10092163 0.15154642 0.3295696 -0.02059677 -0.27448902 0.20626718 0.095432825 -0.015407513 0.29622674 -0.1335268 -0.22644404 0.3802954 0.14960419 0.14560957 -0.5141872 0.49401498 -0.29912585 0.22069171 0.3938493 0.021553515 0.42714208 0.07779172 -0.07682013 -0.0950757 -0.49812314 0.14061145 -0.18931834 0.21020742 -0.4768005 0.34562603 -0.16134915 -0.0787305 0.08178768 0.36639664 0.31877798 -0.09134722 0.51855856 0.06640964 0.14345266 0.10501294 0.6602325 0.22035977 0.154275 -0.39741474 0.029779663 -0.32604396
2 -0.10306037 0.25437012 0.06547058 -0.0655635 0.26586676 -0.87000287 0.48899806 1.0226876 -0.1436876 -0.4353716 -0.006582901 -0.44336602 -0.2016388 0.196247 0.18376094 -0.0023532417 0.036637653 -0.29739574 -0.018868754 -0.8224659 0.16588847 0.2787548 0.5387183 -0.12478529 -0.18329202 -0.16964135 -0.36953247 0.008781286 -0.021689715 -0.16368417 0.5177061 0.045085676 0.19629672 -0.3211746 -0.16737467 0.5922217 0.40653703 -0.398239 -0.38074586 -0.732807 0.38356194 -0.28548077 -0.3391237 -0.21919048 0.41996923 -0.13445202 -0.09528902 -0.022301527 0.05759325 0.16684586 0.2830752 -0.34075645 -0.16259302 -0.022780547 -0.14183082 0.17999654 0.39383557 -0.0055965446 -0.33054715 0.18038273 0.053885963 0.044434737 0.27276516 -0.1939226 -0.26836443 0.41430914 0.1342371 0.20785229 -0.575074 0.5252392 -0.3485265 0.31144643 0.5194361 0.09478419 0.49803847 0.056844704 -0.11256623 -0.21854973 -0.5960723 0.19477722 -0.22306915 0.18940619 -0.501321 0.46673644 -0.1071141 -0.12277416 0.14380132 0.38112232 0.3242688 -0.047165092 0.49243727 0.14001061 0.19844787 0.14145029 0.76439095 0.28155088 0.19842598 -0.44638526 0.027692514 -0.44018695
off -0.10266071 0.2587469 0.042016204 0.00676466 0.25540966 -0.8747778 0.5380352 1.0423739 -0.12865077 -0.4521597 0.0022710124 -0.46080112 -0.21468695 0.17198351 0.13969876 0.04527244 0.07143662 -0.32390946 0.028374637 -0.78219616 0.19311334 0.29806697 0.5078666 -0.1687577 -0.18554759 -0.19511789 -0.35365474 0.020530567 0.009548764 -0.21675873 0.5099905 0.041126635 0.25149006 -0.30868492 -0.25602952 0.6092958 0.4402588 -0.37652948 -0.3920571 -0.6708884 0.43786803 -0.32337898 -0.33114165 -0.23000515 0.44298825 -0.18373582 -0.06473735 -0.06291556 0.036958285 0.19908544 0.2854742 -0.34851485 -0.2071429 -0.049930118 -0.11822832 0.15548219 0.43366453 -0.007819311 -0.36969718 0.1473112 0.047511738 0.058490906 0.30568448 -0.2337669 -0.27611867 0.4529729 0.11211184 0.27882615 -0.5810337 0.5532097 -0.29725513 0.30255273 0.55580837 0.1412185 0.549624 0.013708785 -0.11084728 -0.24492037 -0.5864938 0.24097452 -0.25336373 0.14838004 -0.4869354 0.48793927 -0.056589384 -0.19251676 0.20647441 0.4075263 0.31197435 -0.049168833 0.4807586 0.1693771 0.19813345 0.11717091 0.7680137 0.2726808 0.14775717 -0.32957396 0.027612021 -0.36332622
oh -0.053478695 0.2555709 0.21190453 0.093671426 0.022289917 -0.721007 0.36637473 0.82972956 -0.27119225 -0.4109766 0.037674706 -0.49920171 0.026369296 0.25825977 0.19888276 -0.21969725 0.058225416 -0.4512198 -0.30029437 -0.9976941 0.10986008 0.12036532 0.36271572 -0.30989796 -0.10782781 0.037935548 -0.26783594 -0.099129684 -0.2999821 -0.0016897712 0.37588927 -0.08632107 0.13275902 -0.47238743 -0.07013053 0.331041 0.27640936 -0.45331866 -0.23809594 -0.5997126 0.04680722 -0.31469882 -0.22124295 -0.09575199 0.45545152 -0.19322433 -0.31289244 0.04073135 0.27786186 0.2769928 0.062162336 -0.35963088 0.0014716027 -0.024189841 -0.17743489 0.25895646 0.39922372 0.042328134 -0.1791353 0.3964489 0.21293083 0.041572463 0.16734953 -0.005126299 -0.33056313 0.59242034 0.21980971 0.3915196 -0.5423516 0.51704824 -0.37098336 0.29655585 0.41231063 -0.11468704 0.46278533 0.26619592 0.0010193269 -0.067144595 -0.3504557 0.0034152998 -0.32838902 0.07858244 -0.58809996 0.50594103 -0.230646 -0.04221825 0.31150752 0.18857345 0.47437978 -0.17449875 0.5417194 0.1868429 0.20492153 0.26715547 0.59711754 0.3377184 0.1788043 -0.32233784 -0.01973304 -0.18732397
lol -0.10495748 0.2367988 0.16150972 0.09477616 0.0677509 -0.812569 0.4669383 0.90043443 -0.22398293 -0.42607477 0.061990958 -0.4954565 -0.044006214 0.22290874 0.12563431 -0.11336504 0.110445715 -0.43759415 -0.22190662 -0.98442054 0.16298772 0.22546142 0.38317782 -0.30723417 -0.106126375 -0.025666634 -0.2916063 -0.05793089 -0.21950828 -0.055992663 0.41709456 -0.048145793 0.19466631 -0.4675548 -0.18411092 0.39620954 0.33275357 -0.38509095 -0.23615496 -0.58317536 0.18124124 -0.33239287 -0.2819077 -0.08808799 0.4721604 -0.17777923 -0.195533 0.010745743 0.236106 0.3032092 0.131123 -0.3702612 -0.075205304 -0.00011022337 -0.17528547 0.2456578 0.431841 0.063001245 -0.24899799 0.33589143 0.16127518 0.066525936 0.16758206 -0.0696327 -0.2873277 0.61658967 0.18145156 0.40721783 -0.5248769 0.54617983 -0.32904905 0.32141683 0.48608243 -0.0071241534 0.47880378 0.146965 -0.039270274 -0.1596136 -0.39618477 0.07112313 -0.34252992 0.08501773 -0.5211735 0.46592253 -0.14938602 -0.11528053 0.30384713 0.24686638 0.41586286 -0.11669324 0.5141512 0.20515025 0.1887713 0.22322787 0.64114505 0.33102962 0.2097962 -0.21941076 -0.049894895 -0.18884932
sick -0.07259419 0.20601587 0.12566201 0.044744715 0.12750986 -0.7263975 0.46071243 0.8418762 -0.18825136 -0.41626102 0.009670271 -0.41456506 -0.07336177 0.19490089 0.11660543 -0.04804627 0.07527278 -0.34282416 -0.12692095 -0.7978755 0.19485658 0.2056194 0.39470845 -0.22731972 -0.10926492 -0.10748281 -0.28273308 -0.03872779 -0.099010594 -0.09162327 0.40580913 0.008898595 0.19522738 -0.376486 -0.15727994 0.4705494 0.36436385 -0.32697225 -0.2797443 -0.6018703 0.25084883 -0.30239385 -0.26779377 -0.11210283 0.42980304 -0.1742441 -0.16440399 0.0067447866 0.17181931 0.20771839 0.154736 -0.30567524 -0.12027016 -0.0044167927 -0.161917 0.19117212 0.34796962 -0.013548441 -0.29196858 0.24074699 0.09262948 0.05643577 0.21243094 -0.115186945 -0.25601602 0.50768757 0.13953137 0.3289468 -0.48612037 0.5211195 -0.28870428 0.30965522 0.43632615 0.05488553 0.44138992 0.09793884 -0.01692627 -0.19588909 -0.43861917 0.13082373 -0.25777158 0.107356235 -0.46417102 0.40828565 -0.09802185 -0.13897891 0.25077993 0.27371582 0.3240937 -0.083501495 0.4243846 0.17910825 0.14865324 0.14937639 0.59171605 0.26369008 0.12067065 -0.2588813 -0.008089244 -0.21989213
feel -0.08529483 0.2413954 0.2110147 0.078984134 -0.006560519 -0.73329955 0.4017752 0.7303181 -0.21922311 -0.39274698 0.062979326 -0.48746184 0.05210087 0.185916 0.060992945 -0.166952 0.16575634 -0.52829015 -0.3492782 -1.0990645 0.19141279 0.22697003 0.31492892 -0.39191058 -0.080256775 0.027404914 -0.23995803 -0.13533917 -0.30628145 0.014249081 0.451746 -0.054661874 0.14882801 -0.56511605 -0.17341867 0.3127664 0.21019696 -0.3256716 -0.12171439 -0.54521 0.07142156 -0.2760149 -0.15738244 -0.04300406 0.41496658 -0.23615451 -0.2576008 0.0316414 0.31139955 0.29684797 0.104176894 -0.37878364 0.0049405615 0.031844508 -0.2009855 0.2718916 0.3832651 0.082938686 -0.22547738 0.38516212 0.22369036 0.07069248 0.13494277 0.009310917 -0.28568283 0.66513324 0.22895364 0.42619172 -0.44704247 0.4980201 -0.28424457 0.29727823 0.369378 -0.045199543 0.42781118 0.21355462 0.0141916685 -0.1057771 -0.2952696 0.0031231954 -0.4133184 0.08300446 -0.5304648 0.38794994 -0.21678689 -0.089247644 0.38648358 0.19770662 0.42230868 -0.15103386 0.5484735 0.23349462 0.10308377 0.21430688 0.5075252 0.2987778 0.20188491 -0.11570239 -0.09179975 -0.025520954
sorry -0.060480352 0.22741005 0.26764226 0.21123545 -0.07479272 -0.73821825 0.35898992 0.69604325 -0.29529038 -0.37613732 0.058519192 -0.52593964 0.08010925 0.2901373 0.1363309 -0.22859226 0.14651531 -0.4590353 -0.41969967 -1.001898 0.08614347 0.13147251 0.22474365 -0.40125322 -0.037403412 0.08533355 -0.18193573 -0.061871156 -0.3757632 0.08327494 0.29144242 -0.10741264 0.17359556 -0.54897064 -0.18144807 0.18939577 0.2647793 -0.32238737 -0.10255471 -0.38167724 -0.02179347 -0.33588287 -0.20428206 -0.0101977615 0.48403946 -0.22072962 -0.2996998 0.018058063 0.40734452 0.3692406 -0.042843953 -0.34870678 0.009050339 0.036034245 -0.20728905 0.28754392 0.38178936 0.034061458 -0.1269869 0.47000837 0.23194008 0.06897262 0.07715733 0.03953755 -0.28924438 0.7173946 0.23966424 0.47436255 -0.4754203 0.5588722 -0.2670243 0.28800213 0.42058456 -0.117034666 0.40968558 0.30356073 0.049742647 -0.08762243 -0.17222491 -0.06800909 -0.38838285 -0.052055832 -0.4914724 0.42614397 -0.15858725 -0.08445684 0.3842583 0.15167867 0.49407908 -0.16227548 0.44884595 0.25814867 0.19262242 0.23158216 0.45899108 0.29023197 0.15488236 -0.10588451 -0.07692857 0.015151103
as -0.08199414 0.28702715 0.18268129 0.05275424 0.13193056 -0.8498686 0.47547534 0.97309095 -0.21764773 -0.4655649 0.036224343 -0.44990838 -0.06852504 0.20644651 0.20051616 -0.12837787 0.040754355 -0.4336629 -0.18962622 -0.9680662 0.14627741 0.22134508 0.43890265 -0.23881756 -0.16353913 -0.05616655 -0.3269635 -0.05589999 -0.13585408 -0.1075729 0.44467264 9.868365e-05 0.1918005 -0.39821163 -0.12395577 0.4859061 0.33056968 -0.44912338 -0.30402857 -0.70399576 0.24982062 -0.30041495 -0.2779914 -0.18175222 0.45429 -0.2075987 -0.27225947 0.00594361 0.20935999 0.2000364 0.14359239 -0.34834412 -0.094315074 -0.034049176 -0.16330329 0.23918284 0.38037634 0.033360906 -0.26326188 0.27673125 0.14846453 0.04922195 0.23253334 -0.10596395 -0.2758359 0.5507565 0.18089665 0.2904435 -0.55211943 0.49535728 -0.36698222 0.3155036 0.4711236 0.010517228 0.51281565 0.1265651 -0.044029746 -0.1556342 -0.47071052 0.08202843 -0.24390239 0.14374965 -0.54222596 0.4847414 -0.13896765 -0.08307242 0.26068458 0.2756309 0.42798212 -0.14202487 0.5625996 0.168195 0.15561293 0.1874642 0.6981587 0.31315416 0.15046136 -0.39564046 0.030745827 -0.30237392
much -0.08190448 0.23411092 0.20485981 0.06878265 0.059182275 -0.78114367 0.4345475 0.8874739 -0.20663576 -0.39979208 0.028207531 -0.48568332 -0.025390733 0.20704946 0.1387435 -0.13738011 0.07030182 -0.42068845 -0.19929922 -0.9081509 0.16158776 0.21733366 0.38583323 -0.30947444 -0.12252272 -0.04094278 -0.31557235 -0.045315206 -0.19959037 -0.03775137 0.3988263 -0.018733393 0.17293836 -0.41784352 -0.14647014 0.39445087 0.3268879 -0.37873238 -0.21023493 -0.5957629 0.18686973 -0.33485028 -0.26296297 -0.054383356 0.49459034 -0.17527321 -0.21285833 0.051883865 0.24498002 0.21190079 0.10762954 -0.36769268 -0.07230213 -0.03918352 -0.19075026 0.23335515 0.37267086 -0.018616743 -0.26319423 0.31546575 0.15677856 0.051369037 0.1728637 -0.07746132 -0.23995076 0.5691008 0.18683746 0.38713044 -0.5019526 0.5385683 -0.32079044 0.28565466 0.4102646 0.025227481 0.43520436 0.15688577 0.0020974732 -0.17444141 -0.3874049 0.023027288 -0.28734276 0.091406554 -0.48658988 0.4637651 -0.096499406 -0.10282068 0.30596754 0.23208518 0.40468904 -0.116279185 0.49290693 0.16314182 0.1989575 0.19706745 0.5905042 0.31816533 0.186304 -0.2752915 -0.009972281 -0.1943172
